{"learner":{"attributes":{"best_iteration":"438","best_score":"0.9955970540106402"},"feature_names":["FL_NUMBER_0","FL_NUMBER_1","FL_NUMBER_2","FL_NUMBER_3","FL_NUMBER_4","FL_NUMBER_5","FL_NUMBER_6","FL_NUMBER_7","FL_NUMBER_8","FL_NUMBER_9","FL_NUMBER_10","FL_NUMBER_11","ORIGIN_0","ORIGIN_1","ORIGIN_2","ORIGIN_3","ORIGIN_4","ORIGIN_5","ORIGIN_6","ORIGIN_7","ORIGIN_8","ORIGIN_CITY_0","ORIGIN_CITY_1","ORIGIN_CITY_2","ORIGIN_CITY_3","ORIGIN_CITY_4","ORIGIN_CITY_5","ORIGIN_CITY_6","ORIGIN_CITY_7","ORIGIN_CITY_8","DEST","DEST_CITY","CRS_DEP_TIME","DEP_TIME","DEP_DELAY","TAXI_OUT","WHEELS_OFF","WHEELS_ON","TAXI_IN","CRS_ARR_TIME","ARR_TIME","CRS_ELAPSED_TIME","ELAPSED_TIME","AIR_TIME","DISTANCE","CRS_DEP_TIME_HOUR_SIN","CRS_DEP_TIME_HOUR_COS","CRS_DEP_TIME_MINUTE_SIN","CRS_DEP_TIME_MINUTE_COS","CRS_ARR_TIME_HOUR_SIN","CRS_ARR_TIME_HOUR_COS","CRS_ARR_TIME_MINUTE_SIN","CRS_ARR_TIME_MINUTE_COS","WHEELS_OFF_HOUR_SIN","WHEELS_OFF_HOUR_COS","WHEELS_OFF_MINUTE_SIN","WHEELS_OFF_MINUTE_COS","WHEELS_ON_HOUR_SIN","WHEELS_ON_HOUR_COS","WHEELS_ON_MINUTE_SIN","WHEELS_ON_MINUTE_COS","DEP_TIME_HOUR_SIN","DEP_TIME_HOUR_COS","DEP_TIME_MINUTE_SIN","DEP_TIME_MINUTE_COS","ARR_TIME_HOUR_SIN","ARR_TIME_HOUR_COS","ARR_TIME_MINUTE_SIN","ARR_TIME_MINUTE_COS","dest_state_0","dest_state_1","dest_state_2","dest_state_3","dest_state_4","dest_state_5","origin_state_0","origin_state_1","origin_state_2","origin_state_3","origin_state_4","origin_state_5","FL_DATE_is_weekend","RACI","ADP","TTT","HDS","TODR","FL_DATE_day_name_encoded","AIRLINE_Alaska Airlines Inc.","AIRLINE_Allegiant Air","AIRLINE_American Airlines Inc.","AIRLINE_Delta Air Lines Inc.","AIRLINE_Endeavor Air Inc.","AIRLINE_Envoy Air","AIRLINE_ExpressJet Airlines LLC d/b/a aha!","AIRLINE_Frontier Airlines Inc.","AIRLINE_Hawaiian Airlines Inc.","AIRLINE_Horizon Air","AIRLINE_JetBlue Airways","AIRLINE_Mesa Airlines Inc.","AIRLINE_PSA Airlines Inc.","AIRLINE_Republic Airline","AIRLINE_SkyWest Airlines Inc.","AIRLINE_Southwest Airlines Co.","AIRLINE_Spirit Air Lines","AIRLINE_United Air Lines Inc.","FL_YEAR","FL_MONTH","FL_DAY","FL_DOW"],"feature_types":["float","float","float","float","float","float","float","float","float","float","float","float","float","float","float","float","float","float","float","float","float","float","float","float","float","float","float","float","float","float","float","float","float","float","float","float","float","float","float","float","float","float","float","float","float","float","float","float","float","float","float","float","float","float","float","float","float","float","float","float","float","float","float","float","float","float","float","float","float","float","float","float","float","float","float","float","float","float","float","float","float","float","float","float","float","float","float","float","float","float","float","float","float","float","float","float","float","float","float","float","float","float","float","float","float","float","float","float","float","float"],"gradient_booster":{"model":{"gbtree_model_param":{"num_parallel_tree":"1","num_trees":"489"},"iteration_indptr":[0,1,2,3,4,5,6,7,8,9,10,11,12,13,14,15,16,17,18,19,20,21,22,23,24,25,26,27,28,29,30,31,32,33,34,35,36,37,38,39,40,41,42,43,44,45,46,47,48,49,50,51,52,53,54,55,56,57,58,59,60,61,62,63,64,65,66,67,68,69,70,71,72,73,74,75,76,77,78,79,80,81,82,83,84,85,86,87,88,89,90,91,92,93,94,95,96,97,98,99,100,101,102,103,104,105,106,107,108,109,110,111,112,113,114,115,116,117,118,119,120,121,122,123,124,125,126,127,128,129,130,131,132,133,134,135,136,137,138,139,140,141,142,143,144,145,146,147,148,149,150,151,152,153,154,155,156,157,158,159,160,161,162,163,164,165,166,167,168,169,170,171,172,173,174,175,176,177,178,179,180,181,182,183,184,185,186,187,188,189,190,191,192,193,194,195,196,197,198,199,200,201,202,203,204,205,206,207,208,209,210,211,212,213,214,215,216,217,218,219,220,221,222,223,224,225,226,227,228,229,230,231,232,233,234,235,236,237,238,239,240,241,242,243,244,245,246,247,248,249,250,251,252,253,254,255,256,257,258,259,260,261,262,263,264,265,266,267,268,269,270,271,272,273,274,275,276,277,278,279,280,281,282,283,284,285,286,287,288,289,290,291,292,293,294,295,296,297,298,299,300,301,302,303,304,305,306,307,308,309,310,311,312,313,314,315,316,317,318,319,320,321,322,323,324,325,326,327,328,329,330,331,332,333,334,335,336,337,338,339,340,341,342,343,344,345,346,347,348,349,350,351,352,353,354,355,356,357,358,359,360,361,362,363,364,365,366,367,368,369,370,371,372,373,374,375,376,377,378,379,380,381,382,383,384,385,386,387,388,389,390,391,392,393,394,395,396,397,398,399,400,401,402,403,404,405,406,407,408,409,410,411,412,413,414,415,416,417,418,419,420,421,422,423,424,425,426,427,428,429,430,431,432,433,434,435,436,437,438,439,440,441,442,443,444,445,446,447,448,449,450,451,452,453,454,455,456,457,458,459,460,461,462,463,464,465,466,467,468,469,470,471,472,473,474,475,476,477,478,479,480,481,482,483,484,485,486,487,488,489],"tree_info":[0,0,0,0,0,0,0,0,0,0,0,0,0,0,0,0,0,0,0,0,0,0,0,0,0,0,0,0,0,0,0,0,0,0,0,0,0,0,0,0,0,0,0,0,0,0,0,0,0,0,0,0,0,0,0,0,0,0,0,0,0,0,0,0,0,0,0,0,0,0,0,0,0,0,0,0,0,0,0,0,0,0,0,0,0,0,0,0,0,0,0,0,0,0,0,0,0,0,0,0,0,0,0,0,0,0,0,0,0,0,0,0,0,0,0,0,0,0,0,0,0,0,0,0,0,0,0,0,0,0,0,0,0,0,0,0,0,0,0,0,0,0,0,0,0,0,0,0,0,0,0,0,0,0,0,0,0,0,0,0,0,0,0,0,0,0,0,0,0,0,0,0,0,0,0,0,0,0,0,0,0,0,0,0,0,0,0,0,0,0,0,0,0,0,0,0,0,0,0,0,0,0,0,0,0,0,0,0,0,0,0,0,0,0,0,0,0,0,0,0,0,0,0,0,0,0,0,0,0,0,0,0,0,0,0,0,0,0,0,0,0,0,0,0,0,0,0,0,0,0,0,0,0,0,0,0,0,0,0,0,0,0,0,0,0,0,0,0,0,0,0,0,0,0,0,0,0,0,0,0,0,0,0,0,0,0,0,0,0,0,0,0,0,0,0,0,0,0,0,0,0,0,0,0,0,0,0,0,0,0,0,0,0,0,0,0,0,0,0,0,0,0,0,0,0,0,0,0,0,0,0,0,0,0,0,0,0,0,0,0,0,0,0,0,0,0,0,0,0,0,0,0,0,0,0,0,0,0,0,0,0,0,0,0,0,0,0,0,0,0,0,0,0,0,0,0,0,0,0,0,0,0,0,0,0,0,0,0,0,0,0,0,0,0,0,0,0,0,0,0,0,0,0,0,0,0,0,0,0,0,0,0,0,0,0,0,0,0,0,0,0,0,0,0,0,0,0,0,0,0,0,0,0,0,0,0,0,0,0,0,0,0,0,0,0,0,0,0,0,0,0,0,0,0,0,0,0,0,0,0,0,0,0,0,0,0,0,0,0,0,0,0,0,0,0,0,0,0,0,0,0,0,0,0,0,0,0,0,0],"trees":[{"base_weights":[3.5544273E-2,-6.3524646E-1,7.0128846E-1,-9.475128E-1,3.611246E-1,2.690563E-1,1.0867442E0,-1.4625243E0,-3.2895017E-1,-1.3895766E-1,7.13655E-1,-8.114839E-1,4.5156828E-1,1.2446127E0,4.7008803E-1,-1.9905596E0,-1.1411134E0,-5.0030786E-1,8.936329E-1,-7.4262154E-1,1.5396628E-1,9.204688E-1,2.500344E-1,-1.0634017E0,6.689461E-2,8.045895E-1,1.2620041E-1,9.252124E-1,1.3669856E0,1.4320737E-2,1.0785657E0,-2.242641E0,-1.4922504E0,-1.6570653E0,-8.8946974E-1,-1.5778606E0,-2.5189725E-1,1.0657349E0,-5.503151E-4,-1.109904E0,3.4384113E-2,-3.1353012E-1,5.7219E-1,1.0392951E0,4.48868E-3,-1.7237225E-1,8.844216E-1,-1.9761568E-1,-5.7162094E-1,-1.5811138E-1,9.8261154E-1,-2.2210129E-1,2.7751172E-1,5.1432556E-1,1.1939209E0,2.8764645E-2,1.3923979E0,-8.191731E-1,5.2479357E-1,-8.664185E-3,1.2672853E-1,-2.601585E-1,-1.8523258E0,-8.664185E-3,-1.6667827E0,-1.8385614E0,-4.9890783E-2,-1.143658E0,-2.81381E-1,-1.7666551E0,-8.664185E-3,-8.390591E-1,4.6851475E-2,4.5632654E-1,1.362801E-1,-1.9075127E-1,-3.9834228E-1,-1.4717352E-1,1.2412634E-1,2.1410194E-1,1.1273587E-1,1.1776247E0,3.841154E-1,9.192751E-2,-5.953991E-1,2.8764645E-2,1.2210444E-1,-1.3859622E-1,-1.4650355E-1,-5.8836603E-1,5.952182E-2,7.352938E-1,1.2591435E0,1.0808413E0,1.22092865E-1,-1.0076407E-1,8.5228324E-1,1.2878842E0,2.8764645E-2,1.0168682E0,1.4283049E-1,6.444111E-2,-1.3828092E0,8.1528896E-1,-3.5953008E-2,-1.2754048E-1,-2.1995322E-1,-7.887363E-2,-1.979347E-1,-5.920444E-2,-1.9641785E-1,-1.316648E-1,-6.3610205E-4,5.240875E-3,-1.6685745E-1,-5.6652196E-2,-2.0953298E-1,-6.2752524E-3,-1.1218524E-1,4.67369E-2,-3.4815367E-2,1.13177955E-1,-3.3032615E-2,-1.03188984E-1,4.0072676E-2,-5.7873577E-2,8.316738E-2,-2.7272815E-2,1.1504697E-1,1.2701707E-1,4.4188946E-2,-8.1769474E-2,1.2210444E-1,-1.4767142E-1,1.9773899E-2,2.0185594E-2,-1.06137894E-1,2.4030423E-2,-1.691658E-1,1.4047647E-2,1.0335135E-1,5.6122374E-2,1.3510552E-1,1.946597E-2,1.3678908E-1,-1.7422688E-1,3.1433925E-2,1.2543242E-1,4.229675E-2,4.56886E-2,1.370778E-1,1.1684778E-2,1.362801E-1,-8.664185E-3,-2.0282114E-1,-3.3032615E-2,1.1310589E-1],"categories":[],"categories_nodes":[],"categories_segments":[],"categories_sizes":[],"default_left":[0,0,0,0,0,0,0,0,0,0,0,0,0,0,0,0,0,0,0,0,0,0,0,0,0,0,0,0,0,0,0,0,0,0,0,0,0,0,0,0,0,0,0,0,0,0,0,0,0,0,0,0,0,0,0,0,0,0,0,0,0,0,0,0,0,0,0,0,0,0,0,0,0,0,0,0,0,0,0,0,0,0,0,0,0,0,0,0,0,0,0,0,0,0,0,0,0,0,0,0,0,0,0,0,0,0,0,0,0,0,0,0,0,0,0,0,0,0,0,0,0,0,0,0,0,0,0,0,0,0,0,0,0,0,0,0,0,0,0,0,0,0,0,0,0,0,0,0,0,0,0,0,0,0,0,0,0],"id":0,"left_children":[1,3,5,7,9,11,13,15,17,19,21,23,25,27,29,31,33,35,37,39,41,43,45,47,-1,49,51,53,55,57,59,61,63,65,67,69,71,73,-1,75,-1,77,79,81,-1,83,85,-1,87,89,91,-1,93,95,97,-1,99,101,103,-1,-1,-1,105,-1,107,109,-1,111,113,115,-1,117,119,121,-1,-1,123,-1,125,127,-1,129,131,-1,133,-1,-1,-1,135,137,-1,139,141,143,145,-1,147,149,-1,151,-1,-1,153,155,-1,-1,-1,-1,-1,-1,-1,-1,-1,-1,-1,-1,-1,-1,-1,-1,-1,-1,-1,-1,-1,-1,-1,-1,-1,-1,-1,-1,-1,-1,-1,-1,-1,-1,-1,-1,-1,-1,-1,-1,-1,-1,-1,-1,-1,-1,-1,-1,-1,-1,-1,-1,-1],"loss_changes":[4.2580676E2,1.4812257E2,7.943239E1,1.14812225E2,2.020768E1,4.511431E1,2.4007507E1,3.1195984E1,3.516447E1,8.601788E0,6.2001495E0,1.3072735E1,2.226867E1,6.5727844E0,1.4709729E1,5.8573303E0,1.4745865E1,3.8679356E1,3.2137623E0,6.7077036E0,6.659876E0,4.73962E0,6.0640206E0,1.1758205E1,0E0,1.6132168E1,3.703245E1,5.86026E0,3.5185242E0,1.3777773E1,5.1071243E0,1.7192993E0,6.627243E0,7.4478683E0,1.29910965E1,7.4932632E0,2.1058495E1,2.529047E0,0E0,6.09871E0,0E0,8.443394E0,3.306898E0,3.2146645E0,0E0,7.049312E0,1.4529195E0,0E0,6.743406E0,5.344917E0,4.4643097E0,0E0,1.2005426E1,1.3688275E1,2.5842285E0,0E0,4.2645264E-1,1.1042859E1,5.44776E0,0E0,0E0,0E0,2.3686066E0,0E0,5.162529E0,4.16597E0,0E0,1.1877373E1,1.245784E1,8.301849E0,0E0,8.81217E0,1.3511919E1,4.203454E0,0E0,0E0,4.2866707E0,0E0,6.821806E0,5.822526E0,0E0,1.6804619E0,9.585697E0,0E0,7.809372E0,0E0,0E0,0E0,4.772195E0,9.833511E0,0E0,7.66123E0,1.5385704E0,3.7100601E0,3.0146507E1,0E0,3.0858603E0,1.5194588E0,0E0,4.7076015E0,0E0,0E0,7.522663E0,5.948165E0,0E0,0E0,0E0,0E0,0E0,0E0,0E0,0E0,0E0,0E0,0E0,0E0,0E0,0E0,0E0,0E0,0E0,0E0,0E0,0E0,0E0,0E0,0E0,0E0,0E0,0E0,0E0,0E0,0E0,0E0,0E0,0E0,0E0,0E0,0E0,0E0,0E0,0E0,0E0,0E0,0E0,0E0,0E0,0E0,0E0,0E0,0E0,0E0,0E0,0E0,0E0,0E0,0E0],"parents":[2147483647,0,0,1,1,2,2,3,3,4,4,5,5,6,6,7,7,8,8,9,9,10,10,11,11,12,12,13,13,14,14,15,15,16,16,17,17,18,18,19,19,20,20,21,21,22,22,23,23,25,25,26,26,27,27,28,28,29,29,30,30,31,31,32,32,33,33,34,34,35,35,36,36,37,37,39,39,41,41,42,42,43,43,45,45,46,46,48,48,49,49,50,50,52,52,53,53,54,54,56,56,57,57,58,58,62,62,64,64,65,65,67,67,68,68,69,69,71,71,72,72,73,73,76,76,78,78,79,79,81,81,82,82,84,84,88,88,89,89,91,91,92,92,93,93,94,94,96,96,97,97,99,99,102,102,103,103],"right_children":[2,4,6,8,10,12,14,16,18,20,22,24,26,28,30,32,34,36,38,40,42,44,46,48,-1,50,52,54,56,58,60,62,64,66,68,70,72,74,-1,76,-1,78,80,82,-1,84,86,-1,88,90,92,-1,94,96,98,-1,100,102,104,-1,-1,-1,106,-1,108,110,-1,112,114,116,-1,118,120,122,-1,-1,124,-1,126,128,-1,130,132,-1,134,-1,-1,-1,136,138,-1,140,142,144,146,-1,148,150,-1,152,-1,-1,154,156,-1,-1,-1,-1,-1,-1,-1,-1,-1,-1,-1,-1,-1,-1,-1,-1,-1,-1,-1,-1,-1,-1,-1,-1,-1,-1,-1,-1,-1,-1,-1,-1,-1,-1,-1,-1,-1,-1,-1,-1,-1,-1,-1,-1,-1,-1,-1,-1,-1,-1,-1,-1,-1],"split_conditions":[-3E0,2.6E1,0E0,7.0731705E-1,6.086956E-1,5.638298E-1,1.76E2,-7E0,8.333333E-1,2.8E1,1E0,3.1E1,1.11E2,2E0,7E0,1.4E1,1.7E1,-8E0,1E0,7.431448E-1,9E0,9.135454E-1,3E1,5.3E1,6.689461E-2,1E1,1.04E2,1.9E1,5E-1,6.744186E-1,1.7E2,1E0,6.35E2,1.58E2,6.363636E-1,1.67E2,1.2E1,8.918919E-1,-5.503151E-4,9.1E1,3.4384113E-2,4.4444445E-1,1E0,7.431448E-1,4.48868E-3,-5E-1,2.4E1,-1.9761568E-1,1.1E1,8.660254E-1,2.2E1,-2.2210129E-1,1.27E2,6.1904764E-1,1.2E1,2.8764645E-2,-8.660254E-1,-7.431448E-1,2.27E2,-8.664185E-3,1.2672853E-1,-2.601585E-1,-5E-1,-8.664185E-3,-8.660254E-1,6.6E1,-4.9890783E-2,8.660254E-1,2.5881904E-1,-6.691306E-1,-8.664185E-3,8.1E1,1.13E2,4E0,1.362801E-1,-1.9075127E-1,3.09017E-1,-1.4717352E-1,6.123234E-17,2.3E1,1.1273587E-1,9.5105654E-1,1.04528464E-1,9.192751E-2,1E0,2.8764645E-2,1.2210444E-1,-1.3859622E-1,1.711E3,-3.09017E-1,5.952182E-2,7.070707E-1,5E0,1.09E2,1.23E2,-1.0076407E-1,-2.0791169E-1,-9.135454E-1,2.8764645E-2,3.09017E-1,1.4283049E-1,6.444111E-2,-8.09017E-1,1.79E2,-3.5953008E-2,-1.2754048E-1,-2.1995322E-1,-7.887363E-2,-1.979347E-1,-5.920444E-2,-1.9641785E-1,-1.316648E-1,-6.3610205E-4,5.240875E-3,-1.6685745E-1,-5.6652196E-2,-2.0953298E-1,-6.2752524E-3,-1.1218524E-1,4.67369E-2,-3.4815367E-2,1.13177955E-1,-3.3032615E-2,-1.03188984E-1,4.0072676E-2,-5.7873577E-2,8.316738E-2,-2.7272815E-2,1.1504697E-1,1.2701707E-1,4.4188946E-2,-8.1769474E-2,1.2210444E-1,-1.4767142E-1,1.9773899E-2,2.0185594E-2,-1.06137894E-1,2.4030423E-2,-1.691658E-1,1.4047647E-2,1.0335135E-1,5.6122374E-2,1.3510552E-1,1.946597E-2,1.3678908E-1,-1.7422688E-1,3.1433925E-2,1.2543242E-1,4.229675E-2,4.56886E-2,1.370778E-1,1.1684778E-2,1.362801E-1,-8.664185E-3,-2.0282114E-1,-3.3032615E-2,1.1310589E-1],"split_indices":[34,84,34,83,83,83,41,34,83,84,15,84,41,34,34,35,84,34,103,68,38,52,84,31,0,35,42,84,83,83,42,9,32,42,83,42,35,83,0,31,0,83,15,68,0,47,35,0,35,68,84,0,41,83,107,0,48,56,41,0,0,0,58,0,58,41,0,49,62,52,0,41,41,87,0,0,55,0,56,35,0,55,52,0,6,0,0,0,39,68,0,83,85,42,42,0,68,56,0,56,0,0,64,42,0,0,0,0,0,0,0,0,0,0,0,0,0,0,0,0,0,0,0,0,0,0,0,0,0,0,0,0,0,0,0,0,0,0,0,0,0,0,0,0,0,0,0,0,0,0,0,0,0,0,0,0,0],"split_type":[0,0,0,0,0,0,0,0,0,0,0,0,0,0,0,0,0,0,0,0,0,0,0,0,0,0,0,0,0,0,0,0,0,0,0,0,0,0,0,0,0,0,0,0,0,0,0,0,0,0,0,0,0,0,0,0,0,0,0,0,0,0,0,0,0,0,0,0,0,0,0,0,0,0,0,0,0,0,0,0,0,0,0,0,0,0,0,0,0,0,0,0,0,0,0,0,0,0,0,0,0,0,0,0,0,0,0,0,0,0,0,0,0,0,0,0,0,0,0,0,0,0,0,0,0,0,0,0,0,0,0,0,0,0,0,0,0,0,0,0,0,0,0,0,0,0,0,0,0,0,0,0,0,0,0,0,0],"sum_hessian":[9.514967E2,4.7397482E2,4.7752185E2,3.6091254E2,1.1306228E2,2.2590286E2,2.5161899E2,1.961963E2,1.6471622E2,4.6998436E1,6.606384E1,3.2145157E1,1.937577E2,1.9952167E2,5.2097324E1,7.227118E1,1.23925125E2,1.4498575E2,1.9730476E1,1.485328E1,3.2145157E1,4.500322E1,2.1060621E1,2.7711344E1,4.433815E0,9.222335E1,1.0153436E2,5.7639595E1,1.4188208E2,3.0371632E1,2.1725693E1,4.5668293E1,2.660289E1,3.879588E1,8.512924E1,2.6159508E1,1.1882624E2,1.6405115E1,3.3253613E0,1.10845375E1,3.7687426E0,1.5296661E1,1.6848497E1,3.9460953E1,5.5422688E0,1.3079754E1,7.980867E0,8.645939E0,1.9065405E1,1.4409899E1,7.781345E1,5.3205776E0,9.621378E1,2.39426E1,3.3696995E1,3.547052E0,1.3833502E2,1.1306228E1,1.9065405E1,3.1036704E0,1.8622023E1,2.083893E1,2.4829363E1,3.1036704E0,2.3499218E1,3.303192E1,5.7639594E0,5.941312E1,2.5716125E1,2.3055838E1,3.1036704E0,3.9460953E1,7.936529E1,6.2073407E0,1.0197774E1,4.433815E0,6.6507225E0,3.547052E0,1.1749609E1,1.10845375E1,5.7639594E0,3.1923468E1,7.537485E0,3.3253613E0,9.754393E0,3.547052E0,4.433815E0,5.7639594E0,1.3301445E1,9.311011E0,5.098887E0,4.3008003E1,3.4805447E1,1.4631589E1,8.158219E1,3.9904335E0,1.9952168E1,3.014994E1,3.547052E0,1.4631589E1,1.2370344E2,3.1036704E0,8.202558E0,1.4409899E1,4.6555057E0,1.10845375E1,1.3744826E1,7.094104E0,1.6405115E1,3.547052E0,2.9484869E1,5.143225E1,7.980867E0,2.1504002E1,4.2121243E0,5.5422688E0,1.7513569E1,1.0862846E1,2.8598106E1,3.8352497E1,4.1012787E1,3.1036704E0,3.1036704E0,3.547052E0,3.1036704E0,5.98565E0,5.7639594E0,7.7591763E0,3.3253613E0,2.7711344E1,4.2121243E0,3.1036704E0,4.433815E0,4.2121243E0,5.5422688E0,1.0197774E1,3.1036704E0,5.7639594E0,3.547052E0,1.485328E1,2.8154724E1,4.8771963E0,2.9928251E1,3.9904335E0,1.0641155E1,6.872413E0,7.470978E1,9.311011E0,1.0641155E1,3.3253613E0,2.682458E1,4.433815E0,1.0197774E1,3.1036704E0,5.098887E0,3.1036704E0,1.1306228E1],"tree_param":{"num_deleted":"0","num_feature":"110","num_nodes":"157","size_leaf_vector":"1"}},{"base_weights":[3.6199633E-2,-5.4226196E-1,6.321592E-1,-7.895802E-1,3.2400966E-1,3.2045084E-1,1.0709959E0,-1.0813857E0,-1.07021086E-1,-2.1119756E-1,6.369186E-1,-6.644925E-1,4.8795858E-1,1.2283747E0,4.1928756E-1,-1.5911288E0,-8.043488E-1,-2.6687002E-1,1.1101826E0,-6.1470586E-1,1.5824395E-1,1.1316941E0,3.8032413E-1,-9.510474E-1,4.282962E-1,8.842575E-1,2.1894278E-1,1.598458E-2,1.2550472E0,-1.2109083E-1,6.1801356E-1,-1.7028E0,-4.9669048E-1,-1.090804E0,-4.2392436E-1,-1.1270165E0,-6.0351484E-2,5.2464712E-2,1.2910531E-1,-8.804941E-2,-1.2356094E0,1.14959754E-1,-9.259375E-2,5.4768485E-1,1.3105612E-1,-1.0113692E-1,5.502845E-1,-4.8771343E-1,-1.4023833E0,1.15510106E-1,-2.869249E-2,9.517585E-2,1.0320811E0,-1.8280039E0,3.5256165E-1,9.949648E-1,1.3782618E0,1.283534E-1,1.2200478E0,-1.7485474E0,-5.2597042E-2,-1.3454789E-1,3.0294588E-2,5.4638118E-2,-1.1597568E0,-7.7234024E-1,2.079883E-2,-1.4281315E0,-5.862997E-3,3.7651956E-1,-5.304462E-1,6.287535E-2,-7.8998856E-2,-2.2101258E-1,4.2135637E-2,2.9513657E-1,-7.1708816E-1,8.405763E-2,1.2259944E-2,6.885896E-1,-3.4699064E-2,1.3177286E-1,-1.2135026E0,-6.630467E-1,-2.0583808E-1,-3.521517E-1,8.9810096E-2,1.2634598E-2,1.0957963E0,-1.041369E-1,-2.15578E-1,1.0608048E0,1.3754234E-1,1.1088208E0,4.00619E-1,7.521228E-2,1.406672E-1,-8.153223E-2,5.652278E-1,1.3236615E-1,6.1410487E-2,-1.786428E-1,-6.64505E-2,-1.2381085E-1,2.4480177E-2,-4.205568E-2,-1.5179716E-1,2.418601E-2,-6.699063E-2,-4.9199E-2,-1.8522157E-1,-4.7314253E-2,8.579847E-2,-1.3068844E-1,1.9983279E-2,-1.5297584E-2,1.1405058E-1,-1.2108065E-1,-4.5805173E-3,-1.1158473E-2,7.997081E-2,-6.0102142E-2,5.8493324E-2,-1.7464268E-1,-2.8438106E-2,-1.6454823E-1,1.8502463E-2,7.047637E-2,-1.2351727E-1,7.962447E-2,1.2937582E-1,2.7550315E-2,1.301323E-1,-1.6804497E-1,3.3022515E-2,5.929901E-2,1.2036643E-1,-2.9101728E-2,1.1450237E-1,1.1587745E-1,-1.1060566E-2],"categories":[],"categories_nodes":[],"categories_segments":[],"categories_sizes":[],"default_left":[0,0,0,0,0,0,0,0,0,0,0,0,0,0,0,0,0,0,0,0,0,0,0,0,0,0,0,0,0,0,0,0,0,0,0,0,0,0,0,0,0,0,0,0,0,0,0,0,0,0,0,0,0,0,0,0,0,0,0,0,0,0,0,0,0,0,0,0,0,0,0,0,0,0,0,0,0,0,0,0,0,0,0,0,0,0,0,0,0,0,0,0,0,0,0,0,0,0,0,0,0,0,0,0,0,0,0,0,0,0,0,0,0,0,0,0,0,0,0,0,0,0,0,0,0,0,0,0,0,0,0,0,0,0,0,0,0,0,0,0,0],"id":1,"left_children":[1,3,5,7,9,11,13,15,17,19,21,23,25,27,29,31,33,35,37,39,41,43,45,47,49,51,53,-1,55,-1,57,59,61,63,65,67,69,-1,-1,71,73,-1,75,77,-1,-1,79,81,83,-1,-1,85,87,89,91,93,95,97,99,101,-1,-1,-1,-1,103,105,107,109,-1,111,113,-1,-1,-1,-1,115,117,-1,-1,119,-1,121,123,125,-1,127,-1,-1,129,-1,-1,131,133,135,137,-1,-1,-1,139,-1,-1,-1,-1,-1,-1,-1,-1,-1,-1,-1,-1,-1,-1,-1,-1,-1,-1,-1,-1,-1,-1,-1,-1,-1,-1,-1,-1,-1,-1,-1,-1,-1,-1,-1,-1,-1,-1,-1,-1,-1,-1],"loss_changes":[3.264991E2,1.0322905E2,6.3463562E1,7.441142E1,1.8129858E1,4.55571E1,1.9310654E1,3.572058E1,2.2315685E1,6.1191363E0,8.209995E0,1.30184765E1,2.4848148E1,4.222061E0,1.342095E1,1.0304749E1,1.8256638E1,1.784476E1,7.344494E-1,6.271773E0,5.5481153E0,1.6572037E0,1.1513254E1,6.053158E0,5.0389895E0,1.0941864E1,3.927585E1,0E0,3.47583E0,0E0,1.0317123E1,3.5151978E0,7.099187E0,1.1623802E1,1.1702395E1,6.1789856E0,1.7116638E1,0E0,0E0,6.350438E0,1.5267165E1,0E0,4.6644483E0,7.745285E-1,0E0,0E0,5.442151E0,7.9968247E0,6.291649E0,0E0,0E0,6.0755196E0,4.455902E0,2.8320312E-2,2.0173E1,3.0894089E0,7.215576E-1,8.999222E0,1.8027687E-1,2.051361E0,0E0,0E0,0E0,0E0,1.0619095E1,1.0461008E1,5.3694706E0,5.1009617E0,0E0,1.811099E1,2.299438E1,0E0,0E0,0E0,0E0,4.740781E0,2.3757784E0,0E0,0E0,3.3491669E0,0E0,3.7738473E0,3.5261593E0,7.71718E0,0E0,1.1151587E1,0E0,0E0,3.3728333E0,0E0,0E0,5.482521E0,3.6810986E1,1.4025421E0,5.46158E0,0E0,0E0,0E0,6.0439324E0,0E0,0E0,0E0,0E0,0E0,0E0,0E0,0E0,0E0,0E0,0E0,0E0,0E0,0E0,0E0,0E0,0E0,0E0,0E0,0E0,0E0,0E0,0E0,0E0,0E0,0E0,0E0,0E0,0E0,0E0,0E0,0E0,0E0,0E0,0E0,0E0,0E0,0E0,0E0,0E0,0E0,0E0],"parents":[2147483647,0,0,1,1,2,2,3,3,4,4,5,5,6,6,7,7,8,8,9,9,10,10,11,11,12,12,13,13,14,14,15,15,16,16,17,17,18,18,19,19,20,20,21,21,22,22,23,23,24,24,25,25,26,26,28,28,30,30,31,31,32,32,33,33,34,34,35,35,36,36,39,39,40,40,42,42,43,43,46,46,47,47,48,48,51,51,52,52,53,53,54,54,55,55,56,56,57,57,58,58,59,59,64,64,65,65,66,66,67,67,69,69,70,70,75,75,76,76,79,79,81,81,82,82,83,83,85,85,88,88,91,91,92,92,93,93,94,94,98,98],"right_children":[2,4,6,8,10,12,14,16,18,20,22,24,26,28,30,32,34,36,38,40,42,44,46,48,50,52,54,-1,56,-1,58,60,62,64,66,68,70,-1,-1,72,74,-1,76,78,-1,-1,80,82,84,-1,-1,86,88,90,92,94,96,98,100,102,-1,-1,-1,-1,104,106,108,110,-1,112,114,-1,-1,-1,-1,116,118,-1,-1,120,-1,122,124,126,-1,128,-1,-1,130,-1,-1,132,134,136,138,-1,-1,-1,140,-1,-1,-1,-1,-1,-1,-1,-1,-1,-1,-1,-1,-1,-1,-1,-1,-1,-1,-1,-1,-1,-1,-1,-1,-1,-1,-1,-1,-1,-1,-1,-1,-1,-1,-1,-1,-1,-1,-1,-1,-1,-1],"split_conditions":[-3E0,2.6E1,1E0,7.3913044E-1,5.9375E-1,5.638298E-1,1.8E2,-7E0,8.5714287E-1,-6E0,9.8E1,3E1,1.05E2,4.4444445E-1,1.7E2,2.49E2,2E1,-8E0,4.5E1,3.09017E-1,-8.660254E-1,-8E0,7.1E1,1.7E1,2.021E3,1E1,9.8E1,1.598458E-2,5E0,-1.2109083E-1,8E0,1E0,0E0,5.6E1,6.5789473E-1,7.431448E-1,1.11E2,5.2464712E-2,1.2910531E-1,3.09017E-1,-1.04528464E-1,1.14959754E-1,1E0,-5E-1,1.3105612E-1,-1.0113692E-1,1.1E1,1.04528464E-1,1E0,1.15510106E-1,-2.869249E-2,7.8E1,3.1E1,1E0,1.25E2,1E0,-9.659258E-1,5.9375E-1,1.587E3,2.61E2,-5.2597042E-2,-1.3454789E-1,3.0294588E-2,5.4638118E-2,2.62E2,6.647059E0,8.09017E-1,-3.09017E-1,-5.862997E-3,1.6E1,1.38E2,6.287535E-2,-7.8998856E-2,-2.2101258E-1,4.2135637E-2,2.4E1,1.4E1,8.405763E-2,1.2259944E-2,-8.660254E-1,-3.4699064E-2,1E0,6.9E1,7.3E1,-2.0583808E-1,7.4E1,8.9810096E-2,1.2634598E-2,2E1,-1.041369E-1,-2.15578E-1,1.03E2,1.21E2,-8.09017E-1,2.1E1,7.521228E-2,1.406672E-1,-8.153223E-2,-1.04528464E-1,1.3236615E-1,6.1410487E-2,-1.786428E-1,-6.64505E-2,-1.2381085E-1,2.4480177E-2,-4.205568E-2,-1.5179716E-1,2.418601E-2,-6.699063E-2,-4.9199E-2,-1.8522157E-1,-4.7314253E-2,8.579847E-2,-1.3068844E-1,1.9983279E-2,-1.5297584E-2,1.1405058E-1,-1.2108065E-1,-4.5805173E-3,-1.1158473E-2,7.997081E-2,-6.0102142E-2,5.8493324E-2,-1.7464268E-1,-2.8438106E-2,-1.6454823E-1,1.8502463E-2,7.047637E-2,-1.2351727E-1,7.962447E-2,1.2937582E-1,2.7550315E-2,1.301323E-1,-1.6804497E-1,3.3022515E-2,5.929901E-2,1.2036643E-1,-2.9101728E-2,1.1450237E-1,1.1587745E-1,-1.1060566E-2],"split_indices":[34,84,34,83,83,83,41,34,83,34,41,84,41,83,42,31,84,34,42,59,63,34,43,108,106,35,42,0,34,0,34,89,55,41,83,67,41,0,0,51,51,0,78,46,0,0,107,56,3,0,0,42,43,6,41,91,65,83,44,30,0,0,0,0,30,85,47,51,0,84,42,0,0,0,0,35,108,0,0,65,0,18,31,31,0,41,0,0,84,0,0,42,42,67,84,0,0,0,56,0,0,0,0,0,0,0,0,0,0,0,0,0,0,0,0,0,0,0,0,0,0,0,0,0,0,0,0,0,0,0,0,0,0,0,0,0,0,0,0,0,0],"split_type":[0,0,0,0,0,0,0,0,0,0,0,0,0,0,0,0,0,0,0,0,0,0,0,0,0,0,0,0,0,0,0,0,0,0,0,0,0,0,0,0,0,0,0,0,0,0,0,0,0,0,0,0,0,0,0,0,0,0,0,0,0,0,0,0,0,0,0,0,0,0,0,0,0,0,0,0,0,0,0,0,0,0,0,0,0,0,0,0,0,0,0,0,0,0,0,0,0,0,0,0,0,0,0,0,0,0,0,0,0,0,0,0,0,0,0,0,0,0,0,0,0,0,0,0,0,0,0,0,0,0,0,0,0,0,0,0,0,0,0,0,0],"sum_hessian":[9.450944E2,4.796335E2,4.6546094E2,3.731801E2,1.0645341E2,2.7316238E2,1.9229857E2,2.6100974E2,1.1217036E2,3.939547E1,6.705794E1,3.927267E1,2.338897E2,1.5418108E2,3.8117485E1,9.023519E1,1.7077455E2,9.983969E1,1.2330667E1,1.8512272E1,2.0883198E1,2.1735762E1,4.5322178E1,3.1216639E1,8.056031E0,9.364709E1,1.4024261E2,3.9252193E0,1.5025586E2,3.588318E0,3.4529167E1,8.137611E1,8.859087E0,9.6353874E1,7.442068E1,1.8467136E1,8.137256E1,3.8305686E0,8.500098E0,1.0634118E1,7.8781543E0,3.4934506E0,1.7389748E1,6.0486393E0,1.5687122E1,4.3937817E0,4.0928394E1,1.6430231E1,1.4786407E1,3.6906157E0,4.3654156E0,1.5034868E1,7.861222E1,7.81663E0,1.3242598E2,5.121851E1,9.903735E1,1.9710764E1,1.4818405E1,7.7863464E1,3.512636E0,3.9663353E0,4.892751E0,3.614268E0,9.273961E1,4.131556E1,3.3105118E1,1.4144048E1,4.323088E0,4.2279858E1,3.9092697E1,5.312938E0,5.32118E0,4.75043E0,3.1277242E0,1.1054025E1,6.3357224E0,3.002461E0,3.0461783E0,3.566379E1,5.2646027E0,9.305827E0,7.1244035E0,7.8969555E0,6.8894525E0,1.0016092E1,5.018776E0,5.362686E0,7.3249535E1,3.5276477E0,4.2889824E0,2.9924706E1,1.02501274E2,4.225777E1,8.960738E0,5.49112E0,9.3546234E1,5.963333E0,1.374743E1,1.1643032E1,3.1753726E0,7.460844E1,3.2550263E0,8.795182E1,4.7877874E0,2.9134258E1,1.2181302E1,2.5570936E1,7.5341825E0,5.0832314E0,9.060817E0,1.5298765E1,2.6981094E1,1.8564844E1,2.0527853E1,7.7597747E0,3.2942507E0,3.1875837E0,3.1481388E0,4.348153E0,3.131564E1,3.4311352E0,5.8746915E0,3.9685023E0,3.1559012E0,3.2230256E0,4.6739297E0,4.651017E0,5.3650756E0,3.1144524E1,4.210501E1,7.519308E0,2.2405397E1,9.082755E0,9.3418526E1,7.689382E0,3.456839E1,4.9607244E0,4.0000143E0,6.938845E0,6.808585E0],"tree_param":{"num_deleted":"0","num_feature":"110","num_nodes":"141","size_leaf_vector":"1"}},{"base_weights":[7.4595343E-3,-5.382424E-1,6.089714E-1,-7.241824E-1,5.067293E-1,3.3834615E-1,1.0853578E0,-1.0332282E0,-1.212148E-1,-6.036909E-1,6.3866633E-1,5.6299623E-2,6.7903346E-1,3.3643723E-1,1.1655606E0,-1.468365E0,-8.5845643E-1,-2.83693E-1,9.1174483E-1,-1.2638174E-1,4.154487E-2,1.2325504E0,4.283852E-1,-8.076566E-1,2.7388665E-1,7.93284E-1,-6.481815E-1,1.2083023E-1,-2.5615746E-1,1.2589898E0,8.68446E-1,-9.558575E-1,-2.3634052E-1,1.0327928E0,-9.5600885E-1,-1.1311904E0,-6.380046E-2,4.4619116E-1,1.19420744E-1,6.0057797E-2,1.3293214E-1,-1.5178357E-1,6.2923294E-1,-2.5860634E-1,-1.2890356E0,8.150723E-1,2.203565E-2,2.3942225E-1,9.1371554E-1,-1.7058446E-1,3.3801187E-2,-1.21488445E-1,5.2555747E-2,1.0384228E0,1.3230185E-1,-1.4686175E-2,1.0464892E0,-1.1791993E0,7.567032E-2,2.1093449E-2,1.341221E-1,-1.8756025E0,-8.4015214E-1,-5.323789E-1,-1.6050003E0,-8.8106674E-1,2.2262621E-1,1.009156E-1,-2.7503124E-2,1.2809698E-1,3.2709497E-1,1.6842036E-1,-1.0205769E-1,-1.617697E0,-2.568669E-2,1.3682976E-1,1.0747641E0,6.480447E-1,-2.5774372E-1,-4.0866467E-1,6.860298E-1,1.0380033E0,4.823953E-1,3.5755485E-2,1.1675067E0,2.5604874E-2,1.1605791E0,-4.347924E-2,-1.5602265E-1,-8.717978E-2,-2.2731999E-1,1.0754289E-1,-9.565892E-2,7.2648935E-2,-1.5759613E-1,-2.1855047E-1,-8.567559E-2,-1.0881038E-1,4.6897914E-2,8.251028E-2,-2.695235E-2,-3.5823625E-2,8.950295E-2,-1.7235428E-2,7.456467E-2,-7.654476E-2,-1.9117509E-1,-1.1474122E-1,6.7020096E-2,1.1392487E-2,1.181499E-1,-3.69686E-2,8.432012E-2,-2.1965054E-3,-9.909473E-2,1.0063549E-1,-1.5881091E-1,8.983764E-3,1.2611154E-1,1.0821698E-1,2.8522879E-2,-1.0980821E-1,8.025273E-2,6.8403356E-2,1.2648544E-1,1.2676199E-1,5.6555774E-2],"categories":[],"categories_nodes":[],"categories_segments":[],"categories_sizes":[],"default_left":[0,0,0,0,0,0,0,0,0,0,0,0,0,0,0,0,0,0,0,0,0,0,0,0,0,0,0,0,0,0,0,0,0,0,0,0,0,0,0,0,0,0,0,0,0,0,0,0,0,0,0,0,0,0,0,0,0,0,0,0,0,0,0,0,0,0,0,0,0,0,0,0,0,0,0,0,0,0,0,0,0,0,0,0,0,0,0,0,0,0,0,0,0,0,0,0,0,0,0,0,0,0,0,0,0,0,0,0,0,0,0,0,0,0,0,0,0,0,0,0,0,0,0,0,0,0,0],"id":2,"left_children":[1,3,5,7,9,11,13,15,17,19,21,23,25,27,29,31,33,35,37,-1,-1,39,41,43,45,47,49,-1,51,53,55,57,-1,59,61,63,65,67,-1,-1,-1,-1,69,71,73,75,77,79,81,-1,-1,-1,-1,83,-1,-1,85,87,-1,-1,-1,89,91,93,95,97,99,-1,-1,-1,101,103,-1,105,-1,107,109,111,113,115,117,119,121,-1,123,-1,125,-1,-1,-1,-1,-1,-1,-1,-1,-1,-1,-1,-1,-1,-1,-1,-1,-1,-1,-1,-1,-1,-1,-1,-1,-1,-1,-1,-1,-1,-1,-1,-1,-1,-1,-1,-1,-1,-1,-1,-1],"loss_changes":[3.116591E2,9.709755E1,5.785829E1,7.8706924E1,1.1489332E1,2.7776806E1,9.408371E0,1.9999786E1,2.4508297E1,6.285892E0,7.992466E0,3.0196348E1,2.0380688E1,9.190382E0,2.9865112E0,3.3842316E1,3.822928E1,2.3336521E1,2.0807762E0,0E0,0E0,2.60149E-1,2.1250164E1,8.212189E0,1.7444801E1,7.857605E0,1.198204E1,0E0,8.926289E0,1.7385864E-1,7.0923443E0,2.0676071E1,0E0,2.3487597E0,1.893077E1,6.4704933E0,2.3790663E1,3.9730425E0,0E0,0E0,0E0,0E0,8.987558E0,5.4936924E0,5.343649E0,7.0147095E0,1.5660465E1,6.93186E0,4.8118134E0,0E0,0E0,0E0,0E0,2.1581001E0,0E0,0E0,2.6590157E0,1.2410896E1,0E0,0E0,0E0,6.2896805E0,3.9559868E1,1.809291E1,4.172394E0,7.8779945E0,2.2589352E1,0E0,0E0,0E0,1.3547098E1,2.3591094E0,0E0,1.7163696E0,0E0,9.265406E0,2.865841E0,5.795191E0,1.0670927E1,1.8291193E1,4.679354E0,2.220253E0,1.3042835E1,0E0,2.7342606E-1,0E0,1.0895538E0,0E0,0E0,0E0,0E0,0E0,0E0,0E0,0E0,0E0,0E0,0E0,0E0,0E0,0E0,0E0,0E0,0E0,0E0,0E0,0E0,0E0,0E0,0E0,0E0,0E0,0E0,0E0,0E0,0E0,0E0,0E0,0E0,0E0,0E0,0E0,0E0,0E0,0E0,0E0,0E0],"parents":[2147483647,0,0,1,1,2,2,3,3,4,4,5,5,6,6,7,7,8,8,9,9,10,10,11,11,12,12,13,13,14,14,15,15,16,16,17,17,18,18,21,21,22,22,23,23,24,24,25,25,26,26,28,28,29,29,30,30,31,31,33,33,34,34,35,35,36,36,37,37,42,42,43,43,44,44,45,45,46,46,47,47,48,48,53,53,56,56,57,57,61,61,62,62,63,63,64,64,65,65,66,66,70,70,71,71,73,73,75,75,76,76,77,77,78,78,79,79,80,80,81,81,82,82,84,84,86,86],"right_children":[2,4,6,8,10,12,14,16,18,20,22,24,26,28,30,32,34,36,38,-1,-1,40,42,44,46,48,50,-1,52,54,56,58,-1,60,62,64,66,68,-1,-1,-1,-1,70,72,74,76,78,80,82,-1,-1,-1,-1,84,-1,-1,86,88,-1,-1,-1,90,92,94,96,98,100,-1,-1,-1,102,104,-1,106,-1,108,110,112,114,116,118,120,122,-1,124,-1,126,-1,-1,-1,-1,-1,-1,-1,-1,-1,-1,-1,-1,-1,-1,-1,-1,-1,-1,-1,-1,-1,-1,-1,-1,-1,-1,-1,-1,-1,-1,-1,-1,-1,-1,-1,-1,-1,-1,-1,-1],"split_conditions":[-3E0,2.8E1,2E0,7.2E-1,4.4444445E-1,1.5E1,5.714286E-1,7.9E1,8.333333E-1,9E0,8.7E1,5.9375E-1,2.21E2,1.26E2,1.61E2,8.1E1,9.1E1,-8E0,8.888889E-1,-1.2638174E-1,4.154487E-2,8E0,9E1,1E0,9.3E1,5.5E-1,2.02E2,1.2083023E-1,1.5E1,5E0,1.58E2,7.1E1,-2.3634052E-1,8.1E1,9E1,6.123234E-17,1.6E1,3.09017E-1,1.19420744E-1,6.0057797E-2,1.3293214E-1,-1.5178357E-1,1.14E2,1.522E3,1.23E2,7.0731705E-1,1.14E3,-1.04528464E-1,1.6E2,-1.7058446E-1,3.3801187E-2,-1.21488445E-1,5.2555747E-2,1.6E1,1.3230185E-1,-1.4686175E-2,-8.660254E-1,6.5E1,7.567032E-2,2.1093449E-2,1.341221E-1,9.6E1,1.03E2,2.0791169E-1,-3.09017E-1,1E0,1.13E2,1.009156E-1,-2.7503124E-2,1.2809698E-1,1.57E2,1.058E3,-1.0205769E-1,-7.0710677E-1,-2.568669E-2,4.7E1,8E0,6.06E2,1E0,-4.0673664E-1,3.09017E-1,9.945219E-1,1.3E2,3.5755485E-2,7.5E1,2.5604874E-2,2.38E2,-4.347924E-2,-1.5602265E-1,-8.717978E-2,-2.2731999E-1,1.0754289E-1,-9.565892E-2,7.2648935E-2,-1.5759613E-1,-2.1855047E-1,-8.567559E-2,-1.0881038E-1,4.6897914E-2,8.251028E-2,-2.695235E-2,-3.5823625E-2,8.950295E-2,-1.7235428E-2,7.456467E-2,-7.654476E-2,-1.9117509E-1,-1.1474122E-1,6.7020096E-2,1.1392487E-2,1.181499E-1,-3.69686E-2,8.432012E-2,-2.1965054E-3,-9.909473E-2,1.0063549E-1,-1.5881091E-1,8.983764E-3,1.2611154E-1,1.0821698E-1,2.8522879E-2,-1.0980821E-1,8.025273E-2,6.8403356E-2,1.2648544E-1,1.2676199E-1,5.6555774E-2],"split_indices":[34,84,34,83,83,35,83,42,83,38,41,83,41,41,41,41,41,34,83,0,0,108,42,4,41,83,43,0,35,34,42,42,0,42,42,52,84,52,0,0,0,0,41,39,43,83,39,51,41,0,0,0,0,84,0,0,63,41,0,0,0,41,41,68,68,48,41,0,0,0,42,32,0,50,0,43,35,36,76,67,59,67,43,0,42,0,41,0,0,0,0,0,0,0,0,0,0,0,0,0,0,0,0,0,0,0,0,0,0,0,0,0,0,0,0,0,0,0,0,0,0,0,0,0,0,0,0],"split_type":[0,0,0,0,0,0,0,0,0,0,0,0,0,0,0,0,0,0,0,0,0,0,0,0,0,0,0,0,0,0,0,0,0,0,0,0,0,0,0,0,0,0,0,0,0,0,0,0,0,0,0,0,0,0,0,0,0,0,0,0,0,0,0,0,0,0,0,0,0,0,0,0,0,0,0,0,0,0,0,0,0,0,0,0,0,0,0,0,0,0,0,0,0,0,0,0,0,0,0,0,0,0,0,0,0,0,0,0,0,0,0,0,0,0,0,0,0,0,0,0,0,0,0,0,0,0,0],"sum_hessian":[9.4746893E2,4.9683597E2,4.5063297E2,4.2204514E2,7.479083E1,2.8846957E2,1.6216338E2,2.7855875E2,1.4348637E2,7.5629816E0,6.722785E1,1.5845439E2,1.300152E2,1.6188911E1,1.4597446E2,7.770117E1,2.0085759E2,1.2461117E2,1.887521E1,4.444237E0,3.1187446E0,1.630819E1,5.0919662E1,3.133259E1,1.27121796E2,1.200806E2,9.934598E0,6.1304216E0,1.0058489E1,1.0859032E2,3.738415E1,5.0724087E1,2.6977081E1,9.381985E0,1.914756E2,2.4817327E1,9.979384E1,8.101688E0,1.0773521E1,3.12251E0,1.3185679E1,4.1498957E0,4.6769768E1,1.5355576E1,1.5977015E1,3.966088E1,8.7460915E1,2.1980555E1,9.8100044E1,4.4414973E0,5.4931E0,4.2688594E0,5.78963E0,2.83045E1,8.028581E1,5.603697E0,3.1780453E1,4.5147644E1,5.576442E0,3.0196154E0,6.3623695E0,1.972474E1,1.7175087E2,1.1900641E1,1.2916686E1,2.5359386E1,7.443445E1,4.3258376E0,3.7758505E0,1.3788065E1,3.29817E1,1.0339845E1,5.0157313E0,1.16880455E1,4.2889686E0,1.1403921E1,2.825696E1,2.6608303E1,6.085261E1,9.00217E0,1.2978386E1,7.506344E1,2.3036608E1,5.111777E0,2.3192724E1,4.4177256E0,2.7362728E1,1.6010092E1,2.9137554E1,6.5019884E0,1.322275E1,9.369584E0,1.6238129E2,5.5316677E0,6.3689733E0,6.191973E0,6.7247133E0,2.215571E1,3.203677E0,3.316195E1,4.1272503E1,1.5113431E1,1.786827E1,6.942588E0,3.3972564E0,3.9225364E0,7.7655096E0,3.008606E0,8.395315E0,3.0317905E0,2.522517E1,4.1374445E0,2.247086E1,4.682493E1,1.4027685E1,4.159105E0,4.8430643E0,6.9399467E0,6.0384393E0,7.04901E1,4.5733376E0,3.470889E0,1.9565718E1,5.232487E0,1.7960238E1,2.2232805E1,5.1299214E0],"tree_param":{"num_deleted":"0","num_feature":"110","num_nodes":"127","size_leaf_vector":"1"}},{"base_weights":[3.620247E-2,-3.2019353E-1,8.15678E-1,-6.570838E-1,1.3212751E-1,1.516836E-1,9.400621E-1,-1.3086245E0,-3.8981122E-1,-6.196753E-1,2.5699455E-1,-1.0118334E0,4.275459E-1,7.1204984E-1,1.2145666E0,-1.4081713E0,-1.892102E-1,-5.661209E-1,2.9819533E-1,-8.483854E-1,7.411279E-2,-1.411474E-1,4.889233E-1,-1.645858E-1,-3.6416467E-2,6.291837E-1,-2.3922187E-1,8.494205E-1,3.1579327E-2,5.3868897E-2,1.2288277E0,-1.4621986E0,1.0485105E-3,-7.629014E-2,3.9723936E-2,-8.1656796E-1,-1.6987412E-1,4.7015388E-2,1.110838E0,-1.0016433E0,5.0255444E-2,-4.6336392E-1,3.196444E-1,1.0958301E0,2.66574E-1,-7.230376E-2,8.8767546E-1,-1.059522E-1,4.3014023E-2,5.906013E-1,1.0794913E0,-1.3503765E-1,4.1553932E-1,7.55866E-1,1.2502353E-1,-3.216343E-2,-1.5020821E0,-1.4809605E0,-6.731927E-1,-6.489275E-1,2.8898346E-1,-1.2543459E-1,2.46317E-1,1.2291236E-1,5.734348E-2,-1.2327784E0,1.11913E-2,-6.2207776E-1,8.220392E-2,6.9918543E-1,-2.4073406E-1,1.1743748E0,1.2511821E-2,-1.6856228E-1,3.7408587E-1,6.745676E-2,-5.9776504E-2,1.1389142E-2,1.0660592E0,1.024922E-1,8.259873E-1,1.169294E0,5.871752E-1,8.1469524E-1,-2.0661892E-1,1.02693096E-1,3.0209927E-2,-1.8721591E-1,-1.2817091E-1,-1.8148229E-1,-8.760025E-2,-7.899067E-2,-3.534273E-3,1.8958168E-2,-8.950716E-2,-1.9762991E-2,7.727339E-2,5.90548E-2,-3.6963236E-2,-1.4328049E-1,8.345497E-3,-8.03578E-2,1.7864669E-2,3.3884075E-2,1.1652862E-1,5.142492E-2,-8.79353E-2,3.311335E-2,1.24388576E-1,6.399979E-2,3.438937E-3,3.496472E-2,1.1918502E-1,-5.7513274E-2,6.245165E-2,9.402309E-2,-2.3251928E-2,1.2188907E-1,3.1083703E-2,-5.5046868E-2,1.11195974E-1,1.2238069E-1,2.1554954E-2,5.9091665E-2,-1.0337621E-1],"categories":[],"categories_nodes":[],"categories_segments":[],"categories_sizes":[],"default_left":[0,0,0,0,0,0,0,0,0,0,0,0,0,0,0,0,0,0,0,0,0,0,0,0,0,0,0,0,0,0,0,0,0,0,0,0,0,0,0,0,0,0,0,0,0,0,0,0,0,0,0,0,0,0,0,0,0,0,0,0,0,0,0,0,0,0,0,0,0,0,0,0,0,0,0,0,0,0,0,0,0,0,0,0,0,0,0,0,0,0,0,0,0,0,0,0,0,0,0,0,0,0,0,0,0,0,0,0,0,0,0,0,0,0,0,0,0,0,0,0,0,0,0,0,0],"id":3,"left_children":[1,3,5,7,9,11,13,15,17,19,21,23,25,27,29,31,33,35,37,39,-1,41,43,-1,-1,45,47,49,51,-1,53,55,-1,-1,-1,57,59,61,63,65,-1,67,69,71,73,75,77,-1,-1,79,81,-1,83,85,-1,-1,87,89,91,93,95,-1,97,-1,-1,99,-1,101,-1,103,105,107,-1,-1,109,-1,-1,-1,111,113,115,117,119,121,123,-1,-1,-1,-1,-1,-1,-1,-1,-1,-1,-1,-1,-1,-1,-1,-1,-1,-1,-1,-1,-1,-1,-1,-1,-1,-1,-1,-1,-1,-1,-1,-1,-1,-1,-1,-1,-1,-1,-1,-1],"loss_changes":[2.6125537E2,9.843981E1,2.422673E1,6.393622E1,2.6101622E1,1.5757356E1,1.467746E1,1.1682571E1,3.2175148E1,1.2970399E1,2.2017857E1,3.280157E0,5.43389E0,1.287883E1,4.1041565E-1,7.55101E0,3.6379108E0,2.0738937E1,1.1067869E1,7.628729E0,0E0,1.325416E1,2.0006802E1,0E0,0E0,5.5853443E0,5.8636847E0,6.2004395E0,1.341724E1,0E0,1.502533E-1,3.8255463E0,0E0,0E0,0E0,1.125708E1,1.8374395E1,1.1373309E1,1.10025406E-1,8.179258E0,0E0,1.1192356E1,8.019933E0,2.9037247E0,2.4014118E1,3.9837506E0,2.960104E0,0E0,0E0,6.3779945E0,1.9477692E0,0E0,5.0668893E0,5.7699585E-1,0E0,0E0,5.041916E0,2.853592E0,7.985569E0,8.587576E0,1.0263308E1,0E0,8.239313E0,0E0,0E0,6.9532204E0,0E0,6.998869E0,0E0,3.3448143E0,7.99817E0,1.7508278E0,0E0,0E0,9.590347E0,0E0,0E0,0E0,1.2074585E0,7.236515E0,4.790512E0,1.7237396E0,7.2992E0,2.7311716E0,6.2226458E0,0E0,0E0,0E0,0E0,0E0,0E0,0E0,0E0,0E0,0E0,0E0,0E0,0E0,0E0,0E0,0E0,0E0,0E0,0E0,0E0,0E0,0E0,0E0,0E0,0E0,0E0,0E0,0E0,0E0,0E0,0E0,0E0,0E0,0E0,0E0,0E0,0E0,0E0,0E0,0E0],"parents":[2147483647,0,0,1,1,2,2,3,3,4,4,5,5,6,6,7,7,8,8,9,9,10,10,11,11,12,12,13,13,14,14,15,15,16,16,17,17,18,18,19,19,21,21,22,22,25,25,26,26,27,27,28,28,30,30,31,31,35,35,36,36,37,37,38,38,39,39,41,41,42,42,43,43,44,44,45,45,46,46,49,49,50,50,52,52,53,53,56,56,57,57,58,58,59,59,60,60,62,62,65,65,67,67,69,69,70,70,71,71,74,74,78,78,79,79,80,80,81,81,82,82,83,83,84,84],"right_children":[2,4,6,8,10,12,14,16,18,20,22,24,26,28,30,32,34,36,38,40,-1,42,44,-1,-1,46,48,50,52,-1,54,56,-1,-1,-1,58,60,62,64,66,-1,68,70,72,74,76,78,-1,-1,80,82,-1,84,86,-1,-1,88,90,92,94,96,-1,98,-1,-1,100,-1,102,-1,104,106,108,-1,-1,110,-1,-1,-1,112,114,116,118,120,122,124,-1,-1,-1,-1,-1,-1,-1,-1,-1,-1,-1,-1,-1,-1,-1,-1,-1,-1,-1,-1,-1,-1,-1,-1,-1,-1,-1,-1,-1,-1,-1,-1,-1,-1,-1,-1,-1,-1,-1,-1],"split_conditions":[-1E0,2.2E1,5.925926E-1,6.034483E-1,-9E0,1.7E1,4E0,-2E0,8E-1,3.4E1,6.086956E-1,-1.04528464E-1,1.94E2,1.82E2,-9.945219E-1,1E0,3E0,-4E0,8.5714287E-1,8.660254E-1,7.411279E-2,2.8E1,9.3E1,-1.645858E-1,-3.6416467E-2,4.4444445E-1,1.5E1,2E1,1.62E2,5.3868897E-2,-9.659258E-1,5.6E1,1.0485105E-3,-7.629014E-2,3.9723936E-2,-9E0,1.2E1,9E0,2.2E1,1E0,5.0255444E-2,2.23E2,1E0,9.5105654E-1,8.9E1,1.03E2,3.1E1,-1.059522E-1,4.3014023E-2,7.0731705E-1,1.58E2,-1.3503765E-1,2.29E2,1.651E3,1.2502353E-1,-3.216343E-2,8E1,1.9E1,1.5E1,1.012E3,-1.04528464E-1,-1.2543459E-1,1.1E2,1.2291236E-1,5.734348E-2,9.135454E-1,1.11913E-2,9.135454E-1,8.220392E-2,1E0,1E0,-9.945219E-1,1.2511821E-2,-1.6856228E-1,1.57E2,6.745676E-2,-5.9776504E-2,1.1389142E-2,-9.135454E-1,-2.0791169E-1,2.127E3,9.945219E-1,1.32E2,1.422E3,4E0,1.02693096E-1,3.0209927E-2,-1.8721591E-1,-1.2817091E-1,-1.8148229E-1,-8.760025E-2,-7.899067E-2,-3.534273E-3,1.8958168E-2,-8.950716E-2,-1.9762991E-2,7.727339E-2,5.90548E-2,-3.6963236E-2,-1.4328049E-1,8.345497E-3,-8.03578E-2,1.7864669E-2,3.3884075E-2,1.1652862E-1,5.142492E-2,-8.79353E-2,3.311335E-2,1.24388576E-1,6.399979E-2,3.438937E-3,3.496472E-2,1.1918502E-1,-5.7513274E-2,6.245165E-2,9.402309E-2,-2.3251928E-2,1.2188907E-1,3.1083703E-2,-5.5046868E-2,1.11195974E-1,1.2238069E-1,2.1554954E-2,5.9091665E-2,-1.0337621E-1],"split_indices":[34,84,83,83,34,84,34,34,83,84,83,56,41,41,60,89,87,34,83,49,0,84,41,0,0,83,35,84,43,0,65,41,0,0,0,34,35,35,108,75,0,31,78,56,42,41,31,0,0,83,41,0,41,36,0,0,42,84,35,39,63,0,41,0,0,47,0,55,0,27,27,48,0,0,41,0,0,0,67,56,39,63,43,39,87,0,0,0,0,0,0,0,0,0,0,0,0,0,0,0,0,0,0,0,0,0,0,0,0,0,0,0,0,0,0,0,0,0,0,0,0,0,0,0,0],"split_type":[0,0,0,0,0,0,0,0,0,0,0,0,0,0,0,0,0,0,0,0,0,0,0,0,0,0,0,0,0,0,0,0,0,0,0,0,0,0,0,0,0,0,0,0,0,0,0,0,0,0,0,0,0,0,0,0,0,0,0,0,0,0,0,0,0,0,0,0,0,0,0,0,0,0,0,0,0,0,0,0,0,0,0,0,0,0,0,0,0,0,0,0,0,0,0,0,0,0,0,0,0,0,0,0,0,0,0,0,0,0,0,0,0,0,0,0,0,0,0,0,0,0,0,0,0],"sum_hessian":[9.384973E2,6.4443463E2,2.9406265E2,3.6908566E2,2.75349E2,4.674504E1,2.4731761E2,1.0622957E2,2.6285608E2,3.8654465E1,2.3669452E2,8.447547E0,3.8297497E1,1.3706279E2,1.1025483E2,9.731741E1,8.912161E0,2.0937775E2,5.347834E1,3.341497E1,5.2394977E0,8.727123E1,1.4942328E2,3.4899325E0,4.957614E0,2.944836E1,8.849134E0,1.1383413E2,2.3228657E1,3.079537E0,1.07175285E2,9.371763E1,3.5997782E0,4.35299E0,4.5591707E0,1.2764146E2,8.173629E1,4.1659615E1,1.1818725E1,3.024264E1,3.1723282E0,5.135488E1,3.5916355E1,3.9011692E1,1.1041159E2,8.123454E0,2.1324907E1,3.714342E0,5.1347923E0,5.52488E1,5.858533E1,4.5033054E0,1.8725351E1,6.2132435E0,1.0096204E2,3.4726725E0,9.024496E1,2.0999903E1,1.06641556E2,3.9785492E1,4.1950798E1,4.8297215E0,3.6829895E1,8.631687E0,3.1870372E0,2.4955658E1,5.286982E0,4.6170116E1,5.184763E0,2.1265593E1,1.4650764E1,3.5897274E1,3.1144183E0,4.9970403E0,1.0541455E2,3.237718E0,4.885736E0,4.3020697E0,1.7022837E1,1.8441963E1,3.6806835E1,4.838449E1,1.0200838E1,1.1218481E1,7.50687E0,3.098925E0,3.1143184E0,3.0884525E1,5.9360435E1,1.2243231E1,8.756672E0,8.9945E1,1.6696556E1,9.080808E0,3.0704683E1,2.1208372E1,2.0742428E1,2.365259E1,1.3177304E1,2.1586603E1,3.3690548E0,3.7635674E1,8.534443E0,1.29674015E1,8.298191E0,6.8029637E0,7.8478007E0,3.1727097E0,3.2724564E1,5.863302E1,4.6781532E1,3.1070383E0,1.3915798E1,7.9807034E0,1.046126E1,3.3322147E1,3.4846902E0,4.5344868E1,3.0396261E0,3.204684E0,6.996154E0,6.0469127E0,5.171569E0,3.9672353E0,3.5396342E0],"tree_param":{"num_deleted":"0","num_feature":"110","num_nodes":"125","size_leaf_vector":"1"}},{"base_weights":[2.7668253E-2,-2.9192528E-1,7.55977E-1,-5.9225017E-1,1.19059175E-1,5.595215E-1,1.1051056E0,-1.1512334E0,-3.5958E-1,-1.452967E-1,4.827188E-1,3.3187408E-2,7.20118E-1,1.23482086E-1,5.569573E-1,-1.6252847E0,-9.297275E-1,-5.277441E-1,2.1672064E-1,-8.9463145E-1,3.4620573E-3,1.1066031E-1,6.802469E-1,-5.9364396E-1,4.3971437E-1,8.427448E-1,4.287348E-2,-1.0464602E-1,8.9177907E-1,-1.7730781E-1,-6.468585E-2,-1.019528E0,-1.3630223E-1,-1.011625E0,-3.64988E-1,-1.5823068E-2,7.630486E-1,-1.0886147E0,4.5493547E-2,-1.7106228E-1,4.2865476E-1,-3.7749884E-1,4.3629318E-1,1.0145603E0,3.9237174E-1,-2.409867E-1,-1.7183648E-1,6.474143E-1,-6.786438E-2,4.1823107E-1,9.791299E-1,-1.5237515E-1,4.406679E-1,1.0446521E0,2.126013E-2,-1.0905815E0,-1.5462813E-3,-9.594991E-2,6.131002E-2,-1.1612464E0,-3.1901303E-1,-7.7037585E-1,-1.3447587E-1,-2.8851712E-1,4.4234228E-1,9.532399E-1,-1.0310675E-2,-1.3865286E0,-1.7249718E-2,-2.954045E-1,6.2042916E-1,8.718077E-1,-4.6149117E-1,1.7590258E-1,-1.0591689E0,6.651964E-1,-2.0114724E-1,1.070447E0,3.677284E-2,-1.5524243E-1,6.2389815E-1,-5.570384E-1,6.914509E-2,-3.4952443E-2,8.479812E-1,-4.6946295E-2,6.095672E-1,1.0187447E0,1.484464E-2,7.2139674E-1,-4.9183317E-2,5.3572405E-2,1.139166E-1,-1.1561649E-1,1.36753945E-2,-1.286711E-1,-3.4100834E-2,-8.747262E-2,5.0626438E-2,-5.124996E-2,-1.5258531E-1,-9.9766016E-2,-5.0265086E-4,7.7779315E-2,-4.931842E-2,1.8411858E-3,1.21895455E-1,1.1503502E-1,3.0810148E-2,-3.838625E-2,-1.620077E-1,4.818549E-2,-4.141176E-2,1.04588024E-1,-2.8498194E-3,1.0202569E-1,1.4510626E-2,1.05198035E-2,-1.0319962E-1,-4.3038692E-2,8.0013916E-2,-1.414522E-1,-3.9384004E-2,1.17392935E-1,3.817915E-2,-1.2614585E-1,8.676104E-2,5.766773E-2,1.13068976E-1,7.714343E-2,-3.7429225E-2,-1.261786E-1,6.242848E-3,1.0113429E-1,1.4719794E-2,9.610871E-2,8.647467E-3,7.08764E-2,1.12724595E-1,1.0156752E-1,-1.4446971E-2],"categories":[],"categories_nodes":[],"categories_segments":[],"categories_sizes":[],"default_left":[0,0,0,0,0,0,0,0,0,0,0,0,0,0,0,0,0,0,0,0,0,0,0,0,0,0,0,0,0,0,0,0,0,0,0,0,0,0,0,0,0,0,0,0,0,0,0,0,0,0,0,0,0,0,0,0,0,0,0,0,0,0,0,0,0,0,0,0,0,0,0,0,0,0,0,0,0,0,0,0,0,0,0,0,0,0,0,0,0,0,0,0,0,0,0,0,0,0,0,0,0,0,0,0,0,0,0,0,0,0,0,0,0,0,0,0,0,0,0,0,0,0,0,0,0,0,0,0,0,0,0,0,0,0,0,0,0,0,0,0,0],"id":4,"left_children":[1,3,5,7,9,11,13,15,17,19,21,23,25,-1,27,29,31,33,35,37,39,41,43,45,47,49,51,-1,53,-1,-1,55,57,59,61,63,65,67,-1,69,71,73,75,77,79,81,-1,83,-1,85,87,-1,89,91,-1,93,-1,-1,-1,95,97,99,101,103,105,107,-1,109,-1,111,113,115,117,119,121,123,125,127,-1,-1,129,131,-1,-1,133,-1,135,137,-1,139,-1,-1,-1,-1,-1,-1,-1,-1,-1,-1,-1,-1,-1,-1,-1,-1,-1,-1,-1,-1,-1,-1,-1,-1,-1,-1,-1,-1,-1,-1,-1,-1,-1,-1,-1,-1,-1,-1,-1,-1,-1,-1,-1,-1,-1,-1,-1,-1,-1,-1,-1],"loss_changes":[2.1529506E2,7.942549E1,1.8729446E1,4.7920807E1,2.6246202E1,1.5405491E1,6.4616013E0,9.910507E0,2.5686462E1,1.7664106E1,8.364965E0,1.14028015E1,1.1575172E1,0E0,1.2240827E1,3.6687927E0,5.3094482E0,1.57403145E1,7.674491E0,7.3665752E0,9.956891E0,6.685562E0,6.8030014E0,6.577276E0,6.7335205E0,6.4412384E0,1.4685994E1,0E0,1.6430693E0,0E0,0E0,4.87294E0,6.096739E0,4.906456E0,1.4346338E1,5.5356107E0,3.0680552E0,6.1044865E0,0E0,9.547053E0,1.5804452E1,6.5807514E0,3.7919865E0,8.3504486E-1,1.9805607E1,4.682477E0,0E0,4.968195E0,0E0,5.469425E0,2.7712173E0,0E0,5.252715E0,8.275604E-2,0E0,5.309311E0,0E0,0E0,0E0,3.8316307E0,5.223834E0,1.0097218E1,1.11454115E1,6.437537E0,5.424669E0,1.5376835E0,0E0,3.4521027E0,0E0,7.8492346E0,3.6852894E0,2.7014103E0,4.515582E0,4.2097197E0,1.2722721E0,2.2449045E0,9.47125E0,2.6301956E-1,0E0,0E0,5.8993454E0,5.0750647E0,0E0,0E0,2.111351E0,0E0,4.6132603E0,2.0462723E0,0E0,3.914319E0,0E0,0E0,0E0,0E0,0E0,0E0,0E0,0E0,0E0,0E0,0E0,0E0,0E0,0E0,0E0,0E0,0E0,0E0,0E0,0E0,0E0,0E0,0E0,0E0,0E0,0E0,0E0,0E0,0E0,0E0,0E0,0E0,0E0,0E0,0E0,0E0,0E0,0E0,0E0,0E0,0E0,0E0,0E0,0E0,0E0,0E0,0E0,0E0,0E0,0E0,0E0],"parents":[2147483647,0,0,1,1,2,2,3,3,4,4,5,5,6,6,7,7,8,8,9,9,10,10,11,11,12,12,14,14,15,15,16,16,17,17,18,18,19,19,20,20,21,21,22,22,23,23,24,24,25,25,26,26,28,28,31,31,32,32,33,33,34,34,35,35,36,36,37,37,39,39,40,40,41,41,42,42,43,43,44,44,45,45,47,47,49,49,50,50,52,52,53,53,55,55,59,59,60,60,61,61,62,62,63,63,64,64,65,65,67,67,69,69,70,70,71,71,72,72,73,73,74,74,75,75,76,76,77,77,80,80,81,81,84,84,86,86,87,87,89,89],"right_children":[2,4,6,8,10,12,14,16,18,20,22,24,26,-1,28,30,32,34,36,38,40,42,44,46,48,50,52,-1,54,-1,-1,56,58,60,62,64,66,68,-1,70,72,74,76,78,80,82,-1,84,-1,86,88,-1,90,92,-1,94,-1,-1,-1,96,98,100,102,104,106,108,-1,110,-1,112,114,116,118,120,122,124,126,128,-1,-1,130,132,-1,-1,134,-1,136,138,-1,140,-1,-1,-1,-1,-1,-1,-1,-1,-1,-1,-1,-1,-1,-1,-1,-1,-1,-1,-1,-1,-1,-1,-1,-1,-1,-1,-1,-1,-1,-1,-1,-1,-1,-1,-1,-1,-1,-1,-1,-1,-1,-1,-1,-1,-1,-1,-1,-1,-1,-1,-1],"split_conditions":[-1E0,2.2E1,6E0,6.034483E-1,7.0666665E-1,6E-1,1.8E2,-7E0,7.75E-1,-9E0,5E0,1.9E1,1.88E2,1.23482086E-1,1.72E2,1.36E2,9.659258E-1,-7E0,8.333333E-1,2.31E2,3E1,-2.0791169E-1,1.13E2,2.009E3,7.1E0,1.6E1,1.63E2,-1.0464602E-1,2.46E2,-1.7730781E-1,-6.468585E-2,2.144E3,7.11E2,2.31E2,1.6E1,1.8E1,1E0,2.8E1,4.5493547E-2,2.27E2,1.55E2,1E0,5.8778524E-1,9.945219E-1,1.13E2,-2.5881904E-1,-1.7183648E-1,-8.660254E-1,-6.786438E-2,1E0,9.945219E-1,-1.5237515E-1,8.660254E-1,-6.691306E-1,2.126013E-2,1E0,-1.5462813E-3,-9.594991E-2,6.131002E-2,9.5105654E-1,1.9E1,5E0,1E0,7E1,6.691306E-1,1E0,-1.0310675E-2,-8.09017E-1,-1.7249718E-2,6.5E2,1E0,1E0,1.04528464E-1,-1.8369701E-16,5.8778524E-1,-5E-1,3.09017E-1,6E1,3.677284E-2,-1.5524243E-1,9.781476E-1,-2.0791169E-1,6.914509E-2,-3.4952443E-2,2.5E1,-4.6946295E-2,1.15E2,7.0666665E-1,1.484464E-2,1E0,-4.9183317E-2,5.3572405E-2,1.139166E-1,-1.1561649E-1,1.36753945E-2,-1.286711E-1,-3.4100834E-2,-8.747262E-2,5.0626438E-2,-5.124996E-2,-1.5258531E-1,-9.9766016E-2,-5.0265086E-4,7.7779315E-2,-4.931842E-2,1.8411858E-3,1.21895455E-1,1.1503502E-1,3.0810148E-2,-3.838625E-2,-1.620077E-1,4.818549E-2,-4.141176E-2,1.04588024E-1,-2.8498194E-3,1.0202569E-1,1.4510626E-2,1.05198035E-2,-1.0319962E-1,-4.3038692E-2,8.0013916E-2,-1.414522E-1,-3.9384004E-2,1.17392935E-1,3.817915E-2,-1.2614585E-1,8.676104E-2,5.766773E-2,1.13068976E-1,7.714343E-2,-3.7429225E-2,-1.261786E-1,6.242848E-3,1.0113429E-1,1.4719794E-2,9.610871E-2,8.647467E-3,7.08764E-2,1.12724595E-1,1.0156752E-1,-1.4446971E-2],"split_indices":[34,84,34,83,83,83,41,34,83,34,107,84,41,0,42,43,49,34,83,31,84,55,41,37,85,84,43,0,41,0,0,37,40,31,84,84,103,84,0,31,41,3,52,59,42,54,0,65,0,87,67,0,51,55,0,93,0,0,0,48,84,38,87,41,64,81,0,63,0,32,0,101,52,60,52,60,68,42,0,0,67,56,0,0,108,0,41,83,0,81,0,0,0,0,0,0,0,0,0,0,0,0,0,0,0,0,0,0,0,0,0,0,0,0,0,0,0,0,0,0,0,0,0,0,0,0,0,0,0,0,0,0,0,0,0,0,0,0,0,0,0],"split_type":[0,0,0,0,0,0,0,0,0,0,0,0,0,0,0,0,0,0,0,0,0,0,0,0,0,0,0,0,0,0,0,0,0,0,0,0,0,0,0,0,0,0,0,0,0,0,0,0,0,0,0,0,0,0,0,0,0,0,0,0,0,0,0,0,0,0,0,0,0,0,0,0,0,0,0,0,0,0,0,0,0,0,0,0,0,0,0,0,0,0,0,0,0,0,0,0,0,0,0,0,0,0,0,0,0,0,0,0,0,0,0,0,0,0,0,0,0,0,0,0,0,0,0,0,0,0,0,0,0,0,0,0,0,0,0,0,0,0,0,0,0],"sum_hessian":[9.230067E2,6.419208E2,2.8108594E2,3.706379E2,2.7128287E2,1.8153717E2,9.954877E1,1.07771675E2,2.628662E2,1.574372E2,1.13845695E2,4.2723408E1,1.3881377E2,7.948623E1,2.0062538E1,3.2302578E1,7.54691E1,2.0355367E2,5.931256E1,2.5247133E1,1.3219005E2,4.0021854E1,7.382384E1,1.6626469E1,2.609694E1,1.1732557E2,2.1488201E1,3.0985522E0,1.6963985E1,2.7357925E1,4.9446507E0,6.753991E1,7.9291935E0,4.9920944E1,1.5363272E2,4.2285034E1,1.7027527E1,2.22433E1,3.003833E0,9.414503E1,3.8045025E1,1.5950717E1,2.4071136E1,3.2988976E1,4.0834866E1,1.3582064E1,3.0444047E0,2.2364532E1,3.7324073E0,2.9517036E1,8.780853E1,3.7781801E0,1.771002E1,1.3407941E1,3.556045E0,6.2995792E1,4.5441127E0,3.644959E0,4.2842345E0,4.0496155E1,9.42479E0,5.4842495E1,9.879022E1,2.6740007E1,1.5545027E1,1.3879344E1,3.1481826E0,1.6397486E1,5.8458133E0,8.1904686E1,1.224034E1,2.541363E1,1.2631396E1,9.213146E0,6.737571E0,1.7679081E1,6.392056E0,2.9762564E1,3.2264113E0,3.737246E0,3.709762E1,1.0444484E1,3.13758E0,3.6213837E0,1.8743149E1,4.9762735E0,2.4540764E1,8.359552E1,4.2130113E0,1.3786107E1,3.9239137E0,3.1444204E0,1.026352E1,5.9855373E1,3.1404188E0,3.4630356E1,5.865796E0,5.596431E0,3.8283596E0,4.213755E1,1.27049465E1,1.2008581E1,8.678164E1,3.8550441E0,2.2884964E1,1.0718055E1,4.8269715E0,1.0031343E1,3.8480005E0,3.5972867E0,1.28001995E1,1.044677E1,7.145792E1,7.0237255E0,5.2166147E0,2.0767357E1,4.6462717E0,6.7460623E0,5.885334E0,4.831293E0,4.3818526E0,3.657856E0,3.0797148E0,5.200881E0,1.24782E1,3.1181974E0,3.2738583E0,4.3860006E0,2.5376562E1,3.2518444E1,4.579176E0,4.4008675E0,6.0436163E0,1.484048E1,3.9026682E0,1.4176674E1,1.0364089E1,2.362702E1,5.9968502E1,1.0160041E1,3.6260667E0],"tree_param":{"num_deleted":"0","num_feature":"110","num_nodes":"141","size_leaf_vector":"1"}},{"base_weights":[3.4327753E-2,-2.542827E-1,7.166985E-1,-5.277245E-1,1.2610617E-1,-2.362113E-2,8.3413446E-1,-9.443111E-1,-2.4420072E-1,-2.3587722E-1,3.7175775E-1,-5.0116557E-1,3.881812E-1,6.22455E-1,1.105257E0,-1.0067877E0,5.7177942E-2,-3.3453083E-1,8.740171E-1,-4.9330714E-1,2.1779971E-1,6.6879183E-1,1.11073814E-1,-8.1678474E-1,6.482788E-2,7.539656E-1,-2.3145223E-1,1.6719288E-1,8.312246E-1,1.1443237E0,2.8517922E-2,-1.3147871E0,-8.22063E-1,-9.580776E-1,-1.5850589E-1,1.032799E0,1.3049918E-2,-6.329929E-1,7.745666E-1,-4.2246357E-1,4.2345488E-1,2.144375E-1,9.2565584E-1,-1.482852E-1,2.4970719E-1,-1.1526151E0,5.5989525E-3,1.0029783E-1,1.1989091E-2,-8.75959E-2,5.4849025E-2,3.105078E-1,-1.22050755E-1,9.62179E-1,3.1804374E-1,1.1752373E0,8.052709E-1,-1.675467E0,-9.249058E-1,-1.0318671E0,-4.233437E-1,1.1466631E-1,-1.1404915E0,3.5241E-1,-3.545564E-1,1.1826614E-1,5.4984894E-2,-1.0205415E0,-1.9363748E-1,1.14258245E-1,2.1211302E-2,3.157853E-2,-1.0000241E-1,-1.6768362E-1,6.4811385E-1,-7.9584576E-2,3.8661623E-1,9.9427074E-1,1.1785457E-2,1.1270174E0,6.798632E-2,-1.5124303E-1,-4.0143635E-2,6.88037E-1,-2.832327E-1,1.0451385E0,4.095869E-1,-1.1005092E-1,6.3588995E-1,6.4666115E-2,1.19379334E-1,1.0946696E-1,2.094492E-2,-9.164112E-2,-1.7787777E-1,-9.963281E-3,-1.2729804E-1,-8.989524E-2,-1.7952064E-1,7.672351E-2,-8.036675E-2,8.371229E-2,-6.45991E-2,-1.2424197E-1,-1.1923367E-2,-4.5881808E-2,7.011014E-2,-1.7276478E-1,-2.1230713E-2,-1.2049221E-1,-6.8005747E-3,2.8050968E-2,-7.362808E-2,-7.1223155E-2,4.0519383E-2,3.292302E-2,1.1932158E-1,9.853559E-2,1.0562181E-2,1.06911555E-1,3.5937455E-2,5.0696995E-2,1.2987718E-1,-1.4251228E-1,2.4145236E-2,-1.653626E-2,1.02049984E-1,2.5192192E-2,-8.082638E-2,1.7360993E-2,1.1076405E-1,-9.8077916E-2,1.1447157E-1,9.629114E-2,-1.1701545E-2],"categories":[],"categories_nodes":[],"categories_segments":[],"categories_sizes":[],"default_left":[0,0,0,0,0,0,0,0,0,0,0,0,0,0,0,0,0,0,0,0,0,0,0,0,0,0,0,0,0,0,0,0,0,0,0,0,0,0,0,0,0,0,0,0,0,0,0,0,0,0,0,0,0,0,0,0,0,0,0,0,0,0,0,0,0,0,0,0,0,0,0,0,0,0,0,0,0,0,0,0,0,0,0,0,0,0,0,0,0,0,0,0,0,0,0,0,0,0,0,0,0,0,0,0,0,0,0,0,0,0,0,0,0,0,0,0,0,0,0,0,0,0,0,0,0,0,0,0,0,0,0,0,0,0,0],"id":5,"left_children":[1,3,5,7,9,11,13,15,17,19,21,23,25,27,29,31,-1,33,35,37,39,41,43,45,-1,47,49,51,53,55,-1,57,59,61,63,65,-1,67,69,71,73,75,77,-1,79,81,-1,-1,-1,-1,-1,83,-1,85,87,89,91,93,95,97,99,101,103,105,107,-1,-1,109,111,-1,-1,-1,-1,113,115,-1,117,119,-1,121,123,-1,-1,125,127,129,131,-1,133,-1,-1,-1,-1,-1,-1,-1,-1,-1,-1,-1,-1,-1,-1,-1,-1,-1,-1,-1,-1,-1,-1,-1,-1,-1,-1,-1,-1,-1,-1,-1,-1,-1,-1,-1,-1,-1,-1,-1,-1,-1,-1,-1,-1,-1,-1],"loss_changes":[1.7939748E2,6.666216E1,2.3558487E1,4.3787872E1,2.3969536E1,7.675386E0,1.2724686E1,1.4838333E1,2.2828117E1,1.2859566E1,1.2344482E1,7.078091E0,4.9319057E0,1.2552338E1,2.9151382E0,7.1677856E0,0E0,2.2585354E1,1.8665743E0,1.2881744E1,5.47498E0,8.527199E0,1.9510195E1,4.3451996E0,0E0,2.0007815E0,4.781622E0,8.9771E0,5.8294106E0,6.239319E-2,0E0,5.859062E0,7.3675194E0,9.016087E0,1.6426628E1,3.5028076E-1,0E0,1.0627213E1,1.2879801E0,4.6985826E0,4.2179666E0,5.2311344E0,2.5134926E0,0E0,1.2763873E1,2.2559357E0,0E0,0E0,0E0,0E0,0E0,9.157313E0,0E0,2.8836975E0,9.742043E0,7.1777344E-2,1.7051406E0,4.1938782E-1,7.787081E0,4.5176773E0,1.5949213E1,4.6665397E0,3.9010468E0,1.3229937E1,2.2703434E1,0E0,0E0,5.8094063E0,8.190228E0,0E0,0E0,0E0,0E0,3.1946616E0,3.540245E0,0E0,4.0776963E0,1.6881485E0,0E0,8.0653954E-1,1.7900946E1,0E0,0E0,7.1862526E0,4.7693644E0,3.1941223E0,1.2441739E1,0E0,4.3026333E0,0E0,0E0,0E0,0E0,0E0,0E0,0E0,0E0,0E0,0E0,0E0,0E0,0E0,0E0,0E0,0E0,0E0,0E0,0E0,0E0,0E0,0E0,0E0,0E0,0E0,0E0,0E0,0E0,0E0,0E0,0E0,0E0,0E0,0E0,0E0,0E0,0E0,0E0,0E0,0E0,0E0,0E0,0E0,0E0,0E0,0E0],"parents":[2147483647,0,0,1,1,2,2,3,3,4,4,5,5,6,6,7,7,8,8,9,9,10,10,11,11,12,12,13,13,14,14,15,15,17,17,18,18,19,19,20,20,21,21,22,22,23,23,25,25,26,26,27,27,28,28,29,29,31,31,32,32,33,33,34,34,35,35,37,37,38,38,39,39,40,40,41,41,42,42,44,44,45,45,51,51,53,53,54,54,55,55,56,56,57,57,58,58,59,59,60,60,61,61,62,62,63,63,64,64,67,67,68,68,73,73,74,74,76,76,77,77,79,79,80,80,83,83,84,84,85,85,86,86,88,88],"right_children":[2,4,6,8,10,12,14,16,18,20,22,24,26,28,30,32,-1,34,36,38,40,42,44,46,-1,48,50,52,54,56,-1,58,60,62,64,66,-1,68,70,72,74,76,78,-1,80,82,-1,-1,-1,-1,-1,84,-1,86,88,90,92,94,96,98,100,102,104,106,108,-1,-1,110,112,-1,-1,-1,-1,114,116,-1,118,120,-1,122,124,-1,-1,126,128,130,132,-1,134,-1,-1,-1,-1,-1,-1,-1,-1,-1,-1,-1,-1,-1,-1,-1,-1,-1,-1,-1,-1,-1,-1,-1,-1,-1,-1,-1,-1,-1,-1,-1,-1,-1,-1,-1,-1,-1,-1,-1,-1,-1,-1,-1,-1,-1,-1],"split_conditions":[-1E0,2.2E1,5.714286E-1,6.744186E-1,6.1904764E-1,1E0,4E0,1E0,8.333333E-1,2.8E1,1.2E2,3E1,1.8E2,1.7E1,2.31E2,-1.04528464E-1,5.7177942E-2,-7E0,1E0,2.23E2,4.4444445E-1,-6E0,1.2E2,5E-1,6.482788E-2,5E-1,1.74E2,2.06E2,1.76E2,1E0,2.8517922E-2,1E0,1.16E2,-8.660254E-1,8.6E1,1E0,1.3049918E-2,-5E0,8E0,-3.09017E-1,-6.691306E-1,-8.660254E-1,9.945219E-1,-1.482852E-1,1.41E2,5E-1,5.5989525E-3,1.0029783E-1,1.1989091E-2,-8.75959E-2,5.4849025E-2,1E0,-1.22050755E-1,9.135454E-1,1.76E2,-9.781476E-1,6.691306E-1,7.7E1,5.470588E0,1.21E2,1.44E2,1E0,1.67E2,5.9E1,8.2E1,1.1826614E-1,5.4984894E-2,9.781476E-1,1E0,1.14258245E-1,2.1211302E-2,3.157853E-2,-1.0000241E-1,-5E0,3.3E1,-7.9584576E-2,-4.0673664E-1,2.8E1,1.1785457E-2,-8.09017E-1,1.41E2,-1.5124303E-1,-4.0143635E-2,2E0,1.2246469E-16,-9.781476E-1,3.09017E-1,-1.1005092E-1,6.691306E-1,6.4666115E-2,1.19379334E-1,1.0946696E-1,2.094492E-2,-9.164112E-2,-1.7787777E-1,-9.963281E-3,-1.2729804E-1,-8.989524E-2,-1.7952064E-1,7.672351E-2,-8.036675E-2,8.371229E-2,-6.45991E-2,-1.2424197E-1,-1.1923367E-2,-4.5881808E-2,7.011014E-2,-1.7276478E-1,-2.1230713E-2,-1.2049221E-1,-6.8005747E-3,2.8050968E-2,-7.362808E-2,-7.1223155E-2,4.0519383E-2,3.292302E-2,1.1932158E-1,9.853559E-2,1.0562181E-2,1.06911555E-1,3.5937455E-2,5.0696995E-2,1.2987718E-1,-1.4251228E-1,2.4145236E-2,-1.653626E-2,1.02049984E-1,2.5192192E-2,-8.082638E-2,1.7360993E-2,1.1076405E-1,-9.8077916E-2,1.1447157E-1,9.629114E-2,-1.1701545E-2],"split_indices":[34,84,83,83,83,34,34,89,83,84,41,84,41,84,41,47,0,34,103,31,83,34,42,49,0,51,30,41,41,69,0,8,42,55,41,81,0,34,107,52,56,51,63,0,41,68,0,0,0,0,0,79,0,67,42,55,68,41,85,41,41,8,42,42,42,0,0,48,78,0,0,0,0,34,84,0,56,108,0,48,42,0,0,87,47,51,51,0,56,0,0,0,0,0,0,0,0,0,0,0,0,0,0,0,0,0,0,0,0,0,0,0,0,0,0,0,0,0,0,0,0,0,0,0,0,0,0,0,0,0,0,0,0,0,0],"split_type":[0,0,0,0,0,0,0,0,0,0,0,0,0,0,0,0,0,0,0,0,0,0,0,0,0,0,0,0,0,0,0,0,0,0,0,0,0,0,0,0,0,0,0,0,0,0,0,0,0,0,0,0,0,0,0,0,0,0,0,0,0,0,0,0,0,0,0,0,0,0,0,0,0,0,0,0,0,0,0,0,0,0,0,0,0,0,0,0,0,0,0,0,0,0,0,0,0,0,0,0,0,0,0,0,0,0,0,0,0,0,0,0,0,0,0,0,0,0,0,0,0,0,0,0,0,0,0,0,0,0,0,0,0,0,0],"sum_hessian":[9.0900214E2,6.3925494E2,2.6974716E2,3.716836E2,2.6757135E2,3.7040653E1,2.3270651E2,1.4957692E2,2.2210669E2,1.0818848E2,1.5938287E2,1.705079E1,1.9989862E1,1.3252963E2,1.0017689E2,1.439796E2,5.5973234E0,2.0615428E2,1.5952398E1,6.896711E1,3.9221363E1,7.376568E1,8.5617195E1,1.3604593E1,3.4461966E0,1.2433361E1,7.5565023E0,4.2233105E1,9.0296524E1,9.524428E1,4.9326034E0,5.1685146E1,9.229445E1,4.4406578E1,1.6174771E2,1.2824575E1,3.127822E0,6.2573883E1,6.3932242E0,9.278989E0,2.9942375E1,2.730392E1,4.6461758E1,6.0749345E0,7.954226E1,9.592796E0,4.011797E0,8.509663E0,3.9236982E0,4.070079E0,3.4864235E0,3.8983337E1,3.2497663E0,7.124195E1,1.9054575E1,8.502571E1,1.0218571E1,2.5135178E1,2.6549969E1,5.943309E1,3.286136E1,6.5076466E0,3.7898933E1,4.463347E1,1.17114235E2,8.68175E0,4.142826E0,3.2544273E1,3.0029612E1,3.2411199E0,3.1521046E0,4.271859E0,5.007129E0,8.315543E0,2.1626833E1,3.4483035E0,2.3855618E1,4.261149E1,3.85027E0,1.2756183E1,6.678608E1,5.8007994E0,3.7919974E0,2.3733564E1,1.5249775E1,6.1167645E1,1.0074305E1,3.0371823E0,1.6017391E1,4.099482E0,8.092623E1,6.314358E0,3.9042127E0,4.1936417E0,2.0941536E1,8.257638E0,1.8292332E1,5.2473854E1,6.9592376E0,7.709611E0,2.5151747E1,3.2860749E0,3.2215714E0,3.4262726E1,3.636205E0,1.3322633E1,3.1310837E1,9.947611E0,1.07166626E2,2.704438E1,5.4998937E0,1.6284084E1,1.3745527E1,4.138471E0,4.1770716E0,1.4656679E1,6.970154E0,6.8190317E0,1.7036585E1,3.750615E1,5.105338E0,3.624209E0,9.131974E0,6.200416E0,6.0585663E1,6.794742E0,1.6938822E1,7.809684E0,7.440091E0,4.345913E0,5.682173E1,3.36875E0,6.7055545E0,1.0972571E1,5.0448203E0],"tree_param":{"num_deleted":"0","num_feature":"110","num_nodes":"135","size_leaf_vector":"1"}},{"base_weights":[1.6120723E-2,-2.9810062E-1,5.662751E-1,-4.6176246E-1,2.889981E-1,3.1970266E-1,9.2016476E-1,-6.4933306E-1,-1.6520817E-2,-9.65096E-2,5.314691E-1,7.356469E-1,7.275527E-2,1.0888021E0,4.836601E-1,-1.0045501E0,-4.8168898E-1,-2.022021E-1,5.579719E-1,1.6584942E-2,-1.0487624E-1,1.0104882E0,3.859111E-1,-4.4763896E-1,8.79743E-1,-1.7901866E-1,1.7644674E-1,1.1216698E0,3.715798E-2,3.6440074E-2,1.0070407E0,-1.5537053E0,-8.6525875E-1,-9.4181067E-1,-3.6432487E-1,-3.858642E-1,4.5169264E-1,-3.5497062E-2,7.495004E-1,-2.1864091E-1,9.2526764E-1,4.159017E-2,1.2024416E-1,-9.298386E-2,4.9948168E-1,3.8134854E-2,-1.39156E-1,2.055478E-1,9.946892E-1,-1.6595104E-1,4.7455335E-1,5.1722802E-2,1.13933586E-1,-1.0219898E-1,3.0681378E-1,1.1839288E-1,5.8271945E-1,-1.6693778E-1,-7.454482E-2,-9.451096E-1,-2.4976265E-1,-8.255478E-2,-1.1496614E0,-4.8300856E-1,2.6100438E-2,5.767311E-1,-4.887133E-1,-3.4850117E-2,7.3276484E-1,2.6882088E-1,1.0406234E0,-9.4603646E-1,-1.3712744E-3,1.2298924E-1,2.522555E-2,3.4338114E-1,1.0716119E0,9.5358156E-2,-1.17371455E-1,1.0643934E0,-1.1138771E-2,-4.540345E-1,2.9945397E-1,9.2017E-1,9.3568325E-2,-1.4314763E-1,1.103547E-1,7.6150686E-2,2.504368E-2,-1.10247515E-1,-6.252551E-2,5.4804813E-2,-7.285961E-2,-8.709378E-2,9.3254186E-2,-1.2874813E-1,1.6795438E-2,1.8044943E-2,-5.820498E-2,4.2986274E-2,-3.9022874E-2,-1.0272577E-2,9.9649936E-2,-1.43536E-1,-3.70748E-2,9.806612E-2,-2.1411328E-2,-7.040106E-2,7.599146E-2,1.271737E-1,5.9926208E-2,-1.3670032E-1,-4.3667197E-2,5.0953563E-2,-3.2628797E-2,-3.2139322E-4,6.0339104E-2,5.7050884E-2,1.19879566E-1,6.4178705E-2,1.1750803E-1,-9.917343E-2,-5.749072E-3,-2.9284446E-2,6.732592E-2,1.0401338E-1,2.459543E-2,-1.5338533E-1,2.995853E-2,7.518015E-2,-5.0910432E-2],"categories":[],"categories_nodes":[],"categories_segments":[],"categories_sizes":[],"default_left":[0,0,0,0,0,0,0,0,0,0,0,0,0,0,0,0,0,0,0,0,0,0,0,0,0,0,0,0,0,0,0,0,0,0,0,0,0,0,0,0,0,0,0,0,0,0,0,0,0,0,0,0,0,0,0,0,0,0,0,0,0,0,0,0,0,0,0,0,0,0,0,0,0,0,0,0,0,0,0,0,0,0,0,0,0,0,0,0,0,0,0,0,0,0,0,0,0,0,0,0,0,0,0,0,0,0,0,0,0,0,0,0,0,0,0,0,0,0,0,0,0,0,0,0,0,0,0,0,0,0,0],"id":6,"left_children":[1,3,5,7,9,11,13,15,17,19,21,23,25,27,29,31,33,35,37,39,-1,41,43,45,47,-1,49,51,-1,53,55,57,59,61,63,65,67,-1,69,71,73,-1,-1,-1,75,-1,-1,77,79,81,83,-1,-1,-1,85,-1,87,-1,-1,89,91,93,95,97,99,101,103,-1,105,107,109,111,113,-1,-1,115,117,-1,-1,119,-1,121,123,125,127,129,-1,-1,-1,-1,-1,-1,-1,-1,-1,-1,-1,-1,-1,-1,-1,-1,-1,-1,-1,-1,-1,-1,-1,-1,-1,-1,-1,-1,-1,-1,-1,-1,-1,-1,-1,-1,-1,-1,-1,-1,-1,-1,-1,-1,-1],"loss_changes":[1.5429655E2,5.472208E1,2.8017654E1,3.7124832E1,1.1685423E1,1.9745499E1,9.241661E0,1.8145416E1,1.428185E1,5.2840095E0,4.9481907E0,1.2618671E1,2.3893814E1,1.8208466E0,9.04032E0,6.2576523E0,1.1237656E1,1.2317972E1,5.985648E0,9.755928E0,0E0,1.4657822E0,9.480404E0,7.139628E0,4.774769E0,0E0,1.1973297E1,3.7458038E-1,0E0,6.594701E0,6.484356E-1,5.179939E-1,3.771038E0,7.576332E0,8.005718E0,8.150821E0,5.3460093E0,0E0,3.548874E0,5.737812E0,1.6132507E0,0E0,0E0,0E0,4.650524E0,0E0,0E0,1.2075522E1,4.330578E0,7.507137E0,1.0533936E1,0E0,0E0,0E0,6.701295E0,0E0,2.3794508E-1,0E0,0E0,2.9251328E0,4.495278E0,8.369833E0,6.482868E0,8.800873E0,7.086961E0,2.4215307E0,7.5474415E0,0E0,4.2173796E0,6.109537E0,9.404831E-1,1.1936612E0,4.974244E0,0E0,0E0,4.1129856E0,5.3684235E-2,0E0,0E0,1.6542969E0,0E0,7.2682934E0,4.984451E0,2.0669594E0,1.213916E1,4.492897E0,0E0,0E0,0E0,0E0,0E0,0E0,0E0,0E0,0E0,0E0,0E0,0E0,0E0,0E0,0E0,0E0,0E0,0E0,0E0,0E0,0E0,0E0,0E0,0E0,0E0,0E0,0E0,0E0,0E0,0E0,0E0,0E0,0E0,0E0,0E0,0E0,0E0,0E0,0E0,0E0,0E0,0E0,0E0,0E0,0E0],"parents":[2147483647,0,0,1,1,2,2,3,3,4,4,5,5,6,6,7,7,8,8,9,9,10,10,11,11,12,12,13,13,14,14,15,15,16,16,17,17,18,18,19,19,21,21,22,22,23,23,24,24,26,26,27,27,29,29,30,30,31,31,32,32,33,33,34,34,35,35,36,36,38,38,39,39,40,40,44,44,47,47,48,48,49,49,50,50,54,54,56,56,59,59,60,60,61,61,62,62,63,63,64,64,65,65,66,66,68,68,69,69,70,70,71,71,72,72,75,75,76,76,79,79,81,81,82,82,83,83,84,84,85,85],"right_children":[2,4,6,8,10,12,14,16,18,20,22,24,26,28,30,32,34,36,38,40,-1,42,44,46,48,-1,50,52,-1,54,56,58,60,62,64,66,68,-1,70,72,74,-1,-1,-1,76,-1,-1,78,80,82,84,-1,-1,-1,86,-1,88,-1,-1,90,92,94,96,98,100,102,104,-1,106,108,110,112,114,-1,-1,116,118,-1,-1,120,-1,122,124,126,128,130,-1,-1,-1,-1,-1,-1,-1,-1,-1,-1,-1,-1,-1,-1,-1,-1,-1,-1,-1,-1,-1,-1,-1,-1,-1,-1,-1,-1,-1,-1,-1,-1,-1,-1,-1,-1,-1,-1,-1,-1,-1,-1,-1,-1,-1],"split_conditions":[-2E0,2.6E1,2E0,7.368421E-1,5.9375E-1,1.05E2,1.61E2,-7E0,1.5E1,2.09E2,8.5E1,5.1E1,9.8E1,9.25E0,9E0,5E-1,1E1,8.0851066E-1,-7E0,1.6E2,-1.0487624E-1,-7.0710677E-1,8.8E1,5.8E1,1E1,-1.7901866E-1,2.1E1,4.8E1,3.715798E-2,5.445545E-1,1E0,7.431448E-1,2.35E2,-8.09017E-1,8E0,7E1,1.4E1,-3.5497062E-2,1.23E3,1.8E1,-5E-1,4.159017E-2,1.2024416E-1,-9.298386E-2,3.4E1,3.8134854E-2,-1.39156E-1,1E0,1E0,7.3913044E-1,1.55E2,5.1722802E-2,1.13933586E-1,-1.0219898E-1,2.5E1,1.1839288E-1,1.88E2,-1.6693778E-1,-7.454482E-2,1E0,-5E-1,1.85E2,1.854E3,7.3E1,1E0,1.204E3,7E1,-3.4850117E-2,9.135454E-1,7.647059E-1,1E0,3E0,-2.0791169E-1,1.2298924E-1,2.522555E-2,1.2246469E-16,-7.0710677E-1,9.5358156E-2,-1.17371455E-1,-8.09017E-1,-1.1138771E-2,1.2E2,-1E0,1E0,1.49E2,-7.431448E-1,1.103547E-1,7.6150686E-2,2.504368E-2,-1.10247515E-1,-6.252551E-2,5.4804813E-2,-7.285961E-2,-8.709378E-2,9.3254186E-2,-1.2874813E-1,1.6795438E-2,1.8044943E-2,-5.820498E-2,4.2986274E-2,-3.9022874E-2,-1.0272577E-2,9.9649936E-2,-1.43536E-1,-3.70748E-2,9.806612E-2,-2.1411328E-2,-7.040106E-2,7.599146E-2,1.271737E-1,5.9926208E-2,-1.3670032E-1,-4.3667197E-2,5.0953563E-2,-3.2628797E-2,-3.2139322E-4,6.0339104E-2,5.7050884E-2,1.19879566E-1,6.4178705E-2,1.1750803E-1,-9.917343E-2,-5.749072E-3,-2.9284446E-2,6.732592E-2,1.0401338E-1,2.459543E-2,-1.5338533E-1,2.995853E-2,7.518015E-2,-5.0910432E-2],"split_indices":[34,84,34,83,83,41,41,34,35,41,41,42,42,85,34,83,35,83,34,42,0,45,42,41,35,0,84,42,0,83,71,47,31,56,38,41,84,0,40,35,46,0,0,0,84,0,0,79,92,83,41,0,0,0,84,0,41,0,0,78,46,31,32,41,77,32,42,0,56,83,3,87,60,0,0,55,46,0,0,52,0,43,34,14,42,56,0,0,0,0,0,0,0,0,0,0,0,0,0,0,0,0,0,0,0,0,0,0,0,0,0,0,0,0,0,0,0,0,0,0,0,0,0,0,0,0,0,0,0,0,0],"split_type":[0,0,0,0,0,0,0,0,0,0,0,0,0,0,0,0,0,0,0,0,0,0,0,0,0,0,0,0,0,0,0,0,0,0,0,0,0,0,0,0,0,0,0,0,0,0,0,0,0,0,0,0,0,0,0,0,0,0,0,0,0,0,0,0,0,0,0,0,0,0,0,0,0,0,0,0,0,0,0,0,0,0,0,0,0,0,0,0,0,0,0,0,0,0,0,0,0,0,0,0,0,0,0,0,0,0,0,0,0,0,0,0,0,0,0,0,0,0,0,0,0,0,0,0,0,0,0,0,0,0,0],"sum_hessian":[8.905805E2,5.671247E2,3.234558E2,4.4366147E2,1.2346326E2,1.9175441E2,1.3170139E2,3.1183414E2,1.3182732E2,4.7903248E1,7.5560005E1,7.069716E1,1.2105726E2,9.3921715E1,3.777968E1,9.838223E1,2.134519E2,1.0011672E2,3.1710602E1,4.369624E1,4.207011E0,1.622447E1,5.9335537E1,7.445967E0,6.325119E1,5.5252337E0,1.1553202E2,8.926703E1,4.654689E0,2.0948856E1,1.6830822E1,1.7850883E1,8.053135E1,4.1952797E1,1.7149911E2,7.848283E1,2.1633896E1,5.3510156E0,2.6359585E1,3.5314064E1,8.382176E0,4.73237E0,1.14921E1,4.14358E0,5.5191956E1,4.281652E0,3.164315E0,9.619288E0,5.36319E1,5.3977795E1,6.1554226E1,3.3947291E0,8.58723E1,3.6968622E0,1.7251993E1,1.0615387E1,6.2154346E0,1.4683999E1,3.1668837E0,7.0809425E1,9.721924E0,8.443696E0,3.3509098E1,1.3133731E2,4.0161793E1,7.1313014E0,7.1351524E1,5.561312E0,1.6072582E1,1.0668305E1,1.5691279E1,7.350653E0,2.796341E1,5.2007303E0,3.1814456E0,4.4618404E1,1.0573549E1,6.436905E0,3.1823833E0,5.0487877E1,3.1440222E0,3.3355396E1,2.0622398E1,2.7718372E1,3.3835854E1,1.1549598E1,5.702396E0,3.2012382E0,3.0141964E0,4.5819733E1,2.4989697E1,3.592204E0,6.1297193E0,4.8325057E0,3.6111898E0,3.035672E1,3.1523805E0,1.6952679E1,1.1438464E2,2.0372108E1,1.9789686E1,3.0117002E0,4.1196012E0,6.668727E0,6.468279E1,1.2709506E1,3.3630767E0,3.4333866E0,7.234919E0,9.063756E0,6.627524E0,3.102683E0,4.24797E0,1.0649567E1,1.7313843E1,1.9548182E1,2.5070225E1,3.2508662E0,7.3226833E0,1.188994E1,3.859794E1,1.3520762E1,1.9834635E1,8.063028E0,1.255937E1,2.3070658E1,4.647715E0,3.077782E0,3.0758072E1,3.04607E0,8.503528E0],"tree_param":{"num_deleted":"0","num_feature":"110","num_nodes":"131","size_leaf_vector":"1"}},{"base_weights":[1.37803145E-2,-3.262363E-1,4.3674687E-1,-4.459174E-1,3.836948E-1,2.3295794E-1,8.7707424E-1,-8.048847E-1,-2.5928876E-1,6.3689464E-1,-1.861494E-1,5.581379E-1,-2.8043836E-2,1.0178607E0,4.1746998E-1,-1.14467E0,-6.249604E-1,1.5401891E-1,-4.0207487E-1,-5.866692E-2,7.8647006E-1,-5.37543E-1,5.96033E-1,-5.6276304E-1,6.852902E-1,-1.6441281E0,8.7456815E-2,8.385344E-3,1.0492786E0,-5.5423833E-2,6.252946E-1,-1.7018686E-1,-1.3827074E0,7.577197E-1,-7.5719756E-1,-1.0974711E-1,1.1266507E0,-1.2511536E0,-2.484827E-1,-8.0741666E-2,7.426518E-2,1.0025223E0,2.2679392E-1,7.757092E-2,-8.9984715E-1,1.05963804E-1,-1.09039094E-4,1.4359878E-1,-1.3182662E-1,3.9239824E-1,9.2829096E-1,-9.245699E-2,-2.0670381E-1,2.648982E-1,-5.460233E-1,5.9987915E-1,1.0975031E0,7.880587E-1,-2.4748193E-2,-7.343713E-2,7.2028674E-2,-1.1340605E0,-1.647363E-1,1.3583021E-1,1.5508621E-2,-3.9404616E-1,-1.0564873E0,3.223958E-1,-8.18117E-1,5.5093843E-2,1.3232854E-1,-5.0506073E-1,-1.7271707E0,7.7118134E-1,-4.224776E-1,5.6154513E-1,1.13929E0,-7.3625036E-2,6.2647593E-1,-1.2728082E0,-1.0126887E-2,-4.7502324E-2,6.767634E-2,-2.788456E-1,5.7600516E-1,1.0139896E0,3.746072E-1,-4.099617E-1,4.6369824E-1,-1.7663017E-1,-1.851796E-1,-2.3874192E-2,1.0485255E-1,1.12510584E-1,7.314175E-1,1.9623175E-2,9.630284E-1,-1.4383958E-1,5.2416533E-2,-8.117714E-2,2.7563747E-3,-1.3073765E-1,-3.2806627E-2,-7.254042E-2,7.27579E-2,-1.1705338E-1,2.5413785E-2,-1.6941552E-1,7.185089E-2,-1.9186325E-1,-1.0615363E-1,1.9616164E-2,1.2460462E-1,-1.4614512E-1,-2.0321505E-2,1.10685766E-1,-2.775082E-2,1.20778754E-1,5.4942496E-2,1.00976564E-1,-9.236342E-3,-4.55559E-2,-1.6573374E-1,5.214242E-2,-1.4197463E-1,9.984735E-2,1.8285517E-2,1.0687502E-1,2.9323E-2,9.43832E-2,-3.742028E-2,7.765492E-2,-1.5843002E-1,1.2175756E-1,2.1393918E-2,8.1660405E-2,-6.780576E-2,2.34166E-2,9.902384E-2,1.0940584E-1,3.0870989E-2],"categories":[],"categories_nodes":[],"categories_segments":[],"categories_sizes":[],"default_left":[0,0,0,0,0,0,0,0,0,0,0,0,0,0,0,0,0,0,0,0,0,0,0,0,0,0,0,0,0,0,0,0,0,0,0,0,0,0,0,0,0,0,0,0,0,0,0,0,0,0,0,0,0,0,0,0,0,0,0,0,0,0,0,0,0,0,0,0,0,0,0,0,0,0,0,0,0,0,0,0,0,0,0,0,0,0,0,0,0,0,0,0,0,0,0,0,0,0,0,0,0,0,0,0,0,0,0,0,0,0,0,0,0,0,0,0,0,0,0,0,0,0,0,0,0,0,0,0,0,0,0,0,0,0,0,0,0,0,0,0,0],"id":7,"left_children":[1,3,5,7,9,11,13,15,17,19,21,23,25,27,29,31,33,35,37,39,41,43,45,47,49,51,53,-1,55,-1,57,59,61,63,65,67,69,71,73,-1,-1,75,77,-1,79,-1,-1,81,-1,83,85,-1,-1,87,89,91,93,95,-1,-1,-1,97,-1,-1,-1,99,101,103,105,-1,-1,107,109,111,113,115,117,-1,119,121,-1,-1,-1,123,125,127,129,131,133,-1,135,-1,-1,-1,137,-1,139,-1,-1,-1,-1,-1,-1,-1,-1,-1,-1,-1,-1,-1,-1,-1,-1,-1,-1,-1,-1,-1,-1,-1,-1,-1,-1,-1,-1,-1,-1,-1,-1,-1,-1,-1,-1,-1,-1,-1,-1,-1,-1,-1,-1],"loss_changes":[1.2873204E2,4.233431E1,3.55894E1,2.827124E1,1.0525196E1,2.3274727E1,7.7177124E0,8.145683E0,1.6655256E1,5.2650795E0,6.631726E0,1.7783619E1,2.869843E1,2.7184296E0,6.6480184E0,1.1125374E1,1.8302937E1,1.8830776E1,2.6978367E1,6.48471E0,4.7732162E0,8.486919E0,2.1029198E0,7.119168E0,7.470726E0,1.2094002E0,1.629994E1,0E0,1.3449402E0,0E0,3.9134817E0,5.932272E0,7.127609E-1,3.0336518E0,9.256969E0,1.810242E1,1.0420246E0,1.0423817E1,3.1985407E1,0E0,0E0,1.1421013E0,5.392065E0,0E0,3.83041E0,0E0,0E0,2.8323948E0,0E0,6.5261908E0,2.4402962E0,0E0,0E0,1.534343E1,1.3664571E1,4.450546E0,8.460999E-3,2.120287E0,0E0,0E0,0E0,1.2578819E1,0E0,0E0,0E0,7.384996E0,8.378983E0,1.6198463E1,8.747956E0,0E0,0E0,2.1298347E1,3.8528824E-1,6.954871E0,3.4576416E1,4.40948E0,2.0827293E-1,0E0,2.7364612E0,2.065443E0,0E0,0E0,0E0,1.14841385E1,6.6077375E0,1.6948776E0,4.424655E0,3.7780876E1,1.6255356E1,0E0,1.3213999E1,0E0,0E0,0E0,8.783226E-1,0E0,1.1159849E0,0E0,0E0,0E0,0E0,0E0,0E0,0E0,0E0,0E0,0E0,0E0,0E0,0E0,0E0,0E0,0E0,0E0,0E0,0E0,0E0,0E0,0E0,0E0,0E0,0E0,0E0,0E0,0E0,0E0,0E0,0E0,0E0,0E0,0E0,0E0,0E0,0E0,0E0,0E0,0E0,0E0,0E0,0E0,0E0],"parents":[2147483647,0,0,1,1,2,2,3,3,4,4,5,5,6,6,7,7,8,8,9,9,10,10,11,11,12,12,13,13,14,14,15,15,16,16,17,17,18,18,19,19,20,20,21,21,22,22,23,23,24,24,25,25,26,26,28,28,30,30,31,31,32,32,33,33,34,34,35,35,36,36,37,37,38,38,41,41,42,42,44,44,47,47,49,49,50,50,53,53,54,54,55,55,56,56,57,57,61,61,65,65,66,66,67,67,68,68,71,71,72,72,73,73,74,74,75,75,76,76,78,78,79,79,83,83,84,84,85,85,86,86,87,87,88,88,90,90,94,94,96,96],"right_children":[2,4,6,8,10,12,14,16,18,20,22,24,26,28,30,32,34,36,38,40,42,44,46,48,50,52,54,-1,56,-1,58,60,62,64,66,68,70,72,74,-1,-1,76,78,-1,80,-1,-1,82,-1,84,86,-1,-1,88,90,92,94,96,-1,-1,-1,98,-1,-1,-1,100,102,104,106,-1,-1,108,110,112,114,116,118,-1,120,122,-1,-1,-1,124,126,128,130,132,134,-1,136,-1,-1,-1,138,-1,140,-1,-1,-1,-1,-1,-1,-1,-1,-1,-1,-1,-1,-1,-1,-1,-1,-1,-1,-1,-1,-1,-1,-1,-1,-1,-1,-1,-1,-1,-1,-1,-1,-1,-1,-1,-1,-1,-1,-1,-1,-1,-1,-1,-1],"split_conditions":[-3E0,2.8E1,2E0,6.034483E-1,1E0,1.15E2,1.76E2,6.1E1,8.7E1,-7.431448E-1,3.4E1,1.3E1,1.06E2,5E-1,1.1E1,6.5E1,9.7E1,7.5E1,9E1,1E0,1.55E2,8.7E1,1.04528464E-1,1E0,7.070707E-1,1.2E2,1.96E2,8.385344E-3,-8.660254E-1,-5.5423833E-2,5E-1,5E1,8.5E1,8.9E1,1.155E3,7.1E1,5.8E1,9.3E1,1.1E2,-8.0741666E-2,7.426518E-2,8E0,1.34E2,7.757092E-2,6.123234E-17,1.05963804E-1,-1.09039094E-4,1.13E3,-1.3182662E-1,6.4E1,9.135454E-1,-9.245699E-2,-2.0670381E-1,1.22E2,1.96E2,4.0673664E-1,9.781476E-1,-8.660254E-1,-2.4748193E-2,-7.343713E-2,7.2028674E-2,7.2E1,-1.647363E-1,1.3583021E-1,1.5508621E-2,2E1,1.57E2,-8E0,7.1E1,5.5093843E-2,1.3232854E-1,7.9E1,6.5263157E0,9.7E1,1.11E2,5E-1,2.35E2,-7.3625036E-2,2.5881904E-1,5.470588E0,-1.0126887E-2,-4.7502324E-2,6.767634E-2,7.2E1,9.2E1,2.222E3,1E0,1.26E2,1.42E2,-1.7663017E-1,2.21E2,-2.3874192E-2,1.0485255E-1,1.12510584E-1,3E0,1.9623175E-2,2.222E3,-1.4383958E-1,5.2416533E-2,-8.117714E-2,2.7563747E-3,-1.3073765E-1,-3.2806627E-2,-7.254042E-2,7.27579E-2,-1.1705338E-1,2.5413785E-2,-1.6941552E-1,7.185089E-2,-1.9186325E-1,-1.0615363E-1,1.9616164E-2,1.2460462E-1,-1.4614512E-1,-2.0321505E-2,1.10685766E-1,-2.775082E-2,1.20778754E-1,5.4942496E-2,1.00976564E-1,-9.236342E-3,-4.55559E-2,-1.6573374E-1,5.214242E-2,-1.4197463E-1,9.984735E-2,1.8285517E-2,1.0687502E-1,2.9323E-2,9.43832E-2,-3.742028E-2,7.765492E-2,-1.5843002E-1,1.2175756E-1,2.1393918E-2,8.1660405E-2,-6.780576E-2,2.34166E-2,9.902384E-2,1.0940584E-1,3.0870989E-2],"split_indices":[34,84,34,83,76,41,41,43,41,64,84,84,42,83,35,41,41,42,42,27,41,41,60,28,83,41,41,0,48,0,49,42,41,41,32,41,43,41,41,0,0,108,43,0,54,0,0,32,0,42,63,0,0,42,42,56,63,57,0,0,0,42,0,0,0,84,42,34,42,0,0,42,85,42,42,47,30,0,49,85,0,0,0,41,41,39,8,41,41,0,41,0,0,0,87,0,39,0,0,0,0,0,0,0,0,0,0,0,0,0,0,0,0,0,0,0,0,0,0,0,0,0,0,0,0,0,0,0,0,0,0,0,0,0,0,0,0,0,0,0,0],"split_type":[0,0,0,0,0,0,0,0,0,0,0,0,0,0,0,0,0,0,0,0,0,0,0,0,0,0,0,0,0,0,0,0,0,0,0,0,0,0,0,0,0,0,0,0,0,0,0,0,0,0,0,0,0,0,0,0,0,0,0,0,0,0,0,0,0,0,0,0,0,0,0,0,0,0,0,0,0,0,0,0,0,0,0,0,0,0,0,0,0,0,0,0,0,0,0,0,0,0,0,0,0,0,0,0,0,0,0,0,0,0,0,0,0,0,0,0,0,0,0,0,0,0,0,0,0,0,0,0,0,0,0,0,0,0,0,0,0,0,0,0,0],"sum_hessian":[8.9312775E2,4.9524014E2,3.978876E2,4.241143E2,7.1125854E1,2.730471E2,1.2484049E2,1.43941E2,2.8017328E2,4.9163353E1,2.19625E1,1.2106936E2,1.5197774E2,9.463666E1,3.020383E1,4.797628E1,9.5964714E1,7.191885E1,2.0825444E2,8.808677E0,4.0354675E1,1.5370226E1,6.5922728E0,1.1985582E1,1.0908378E2,9.254471E0,1.4272327E2,3.1991782E0,9.1437485E1,5.0279956E0,2.5175835E1,9.75519E0,3.8221092E1,7.96388E0,8.800083E1,5.7274002E1,1.46448555E1,3.0806408E1,1.7744803E2,4.5497727E0,4.2589035E0,2.85444E1,1.1810277E1,3.076764E0,1.2293462E1,3.275E0,3.317273E0,6.612819E0,5.3727627E0,5.0649757E1,5.843402E1,4.6051936E0,4.6492767E0,1.1194787E2,3.0775398E1,1.0163544E1,8.127394E1,2.130056E1,3.8752744E0,6.0789824E0,3.676207E0,2.24315E1,1.5789592E1,3.3606873E0,4.603193E0,4.0805256E1,4.7195576E1,3.591117E1,2.136283E1,4.6964126E0,9.948443E0,1.2802003E1,1.8004406E1,2.5365591E1,1.5208243E2,7.9659076E0,2.0578491E1,3.216924E0,8.593352E0,7.9750304E0,4.3184314E0,3.1115682E0,3.5012507E0,1.0767268E1,3.9882492E1,4.9881985E1,8.552034E0,2.5231874E1,8.6715996E1,6.134663E0,2.4640736E1,3.7053227E0,6.458221E0,7.364759E1,7.6263475E0,5.3445115E0,1.5956049E1,1.9065048E1,3.366451E0,2.0032211E1,2.0773045E1,3.451337E1,1.2682205E1,9.793907E0,2.6117264E1,1.6009386E1,5.3534427E0,6.297419E0,6.504584E0,1.25205965E1,5.4838095E0,1.211205E1,1.3253542E1,2.5514921E1,1.2656751E2,4.6346254E0,3.3312821E0,1.7498884E1,3.0796084E0,5.3408575E0,3.2524953E0,3.250782E0,4.7242484E0,6.647464E0,4.1198044E0,1.8482271E1,2.140022E1,4.5911034E1,3.970952E0,4.71067E0,3.8413641E0,1.2719385E1,1.251249E1,2.0615324E1,6.610067E1,7.9089136E0,1.6731821E1,3.2627106E0,4.363637E0,1.2733961E1,3.2220871E0],"tree_param":{"num_deleted":"0","num_feature":"110","num_nodes":"141","size_leaf_vector":"1"}},{"base_weights":[2.6371438E-2,-1.8248087E-1,5.811503E-1,-7.784468E-1,-9.109033E-2,4.4591278E-1,1.0730228E0,-9.0480053E-1,5.3147835E-1,-2.56413E-1,2.0863315E-1,7.4890655E-1,1.8183583E-1,3.680675E-2,1.1146731E0,-9.8283637E-1,2.1172887E-2,9.2085466E-2,-6.59244E-3,-4.4420883E-1,1.0385055E-1,6.3372576E-1,7.2482E-2,2.8506926E-1,8.862967E-1,-1.7271815E-1,2.7656037E-1,1.16761826E-1,4.8979603E-2,-1.5779483E-1,-8.361449E-1,-9.397054E-1,-3.5817E-1,6.634508E-1,-1.4537525E-1,3.523559E-1,1.0812057E0,-1.2489247E0,2.2319166E-1,-4.1811264E-1,6.4334387E-1,9.362008E-1,7.0815454E-3,1.4793326E-1,9.773619E-1,-1.2018423E0,-5.3950554E-1,-2.1431701E-1,-1.120685E0,-3.9033416E-1,8.853087E-2,-2.0214207E-1,8.3622783E-1,-1.2835766E-1,-4.2894926E-2,6.24365E-1,-1.57551E-1,4.1244596E-2,1.2096729E-1,-5.776114E-1,-1.9776696E-1,9.681065E-1,5.2495036E-2,9.711519E-3,-8.642333E-2,1.1392237E-1,1.0712111E-1,1.1161572E0,6.686776E-1,7.8786343E-1,-1.047733E-1,2.2387698E-2,1.14928104E-1,-5.7772387E-2,-1.3224621E-1,4.990416E-2,-8.4954284E-2,-7.5652055E-2,3.446948E-2,-1.2720378E-1,-1.6711101E-2,-4.7582503E-2,1.0029764E-2,-8.3056994E-2,4.6060137E-2,6.088108E-2,1.2488333E-1,8.028942E-3,-9.2495225E-2,-3.6134552E-2,8.559366E-2,-1.3276157E-1,7.013443E-2,-1.534033E-2,1.13662444E-1,-1.4007883E-1,1.9931389E-2,-9.992158E-2,1.02793775E-1,6.3731335E-2,1.1869432E-1,-7.0511624E-2,9.298741E-2,-9.309659E-4,1.09062314E-1,-1.4987677E-1,1.5319779E-2],"categories":[],"categories_nodes":[],"categories_segments":[],"categories_sizes":[],"default_left":[0,0,0,0,0,0,0,0,0,0,0,0,0,0,0,0,0,0,0,0,0,0,0,0,0,0,0,0,0,0,0,0,0,0,0,0,0,0,0,0,0,0,0,0,0,0,0,0,0,0,0,0,0,0,0,0,0,0,0,0,0,0,0,0,0,0,0,0,0,0,0,0,0,0,0,0,0,0,0,0,0,0,0,0,0,0,0,0,0,0,0,0,0,0,0,0,0,0,0,0,0,0,0,0,0,0,0],"id":8,"left_children":[1,3,5,7,9,11,13,15,17,19,21,23,25,-1,27,29,-1,-1,-1,31,33,35,37,39,41,-1,43,-1,-1,-1,45,47,49,51,53,55,57,59,61,63,65,67,-1,69,71,73,75,77,79,81,-1,83,85,-1,87,89,-1,-1,-1,91,-1,93,95,-1,-1,-1,97,99,101,103,105,-1,-1,-1,-1,-1,-1,-1,-1,-1,-1,-1,-1,-1,-1,-1,-1,-1,-1,-1,-1,-1,-1,-1,-1,-1,-1,-1,-1,-1,-1,-1,-1,-1,-1,-1,-1],"loss_changes":[1.010708E2,3.445073E1,1.5390579E1,1.4407276E1,2.7340471E1,1.4972549E1,1.0794029E0,6.9264946E0,1.929075E0,2.4088747E1,1.1316331E1,5.3306465E0,1.8961004E1,0E0,9.966965E-1,4.987732E0,0E0,0E0,0E0,9.630222E0,1.7192104E1,5.599039E0,3.0115744E1,5.684327E0,2.6651344E0,0E0,8.711279E0,0E0,0E0,0E0,5.870014E0,4.2198315E0,8.377205E0,5.8446693E0,9.9329195E0,1.7052967E1,1.0347996E0,6.4355793E0,1.7157345E1,1.8909025E0,3.769126E0,2.294609E0,0E0,1.3696691E1,1.693183E0,1.2006035E0,1.1690756E1,2.6916363E0,3.6774597E0,8.287495E0,0E0,3.3479314E0,2.2264442E0,0E0,8.722178E0,6.6026125E0,0E0,0E0,0E0,1.0019947E1,0E0,4.9318504E0,2.3997368E1,0E0,0E0,0E0,9.314214E0,4.729004E-1,1.0665885E1,5.79068E0,2.2250578E1,0E0,0E0,0E0,0E0,0E0,0E0,0E0,0E0,0E0,0E0,0E0,0E0,0E0,0E0,0E0,0E0,0E0,0E0,0E0,0E0,0E0,0E0,0E0,0E0,0E0,0E0,0E0,0E0,0E0,0E0,0E0,0E0,0E0,0E0,0E0,0E0],"parents":[2147483647,0,0,1,1,2,2,3,3,4,4,5,5,6,6,7,7,8,8,9,9,10,10,11,11,12,12,14,14,15,15,19,19,20,20,21,21,22,22,23,23,24,24,26,26,30,30,31,31,32,32,33,33,34,34,35,35,36,36,37,37,38,38,39,39,40,40,41,41,43,43,44,44,45,45,46,46,47,47,48,48,49,49,51,51,52,52,54,54,55,55,59,59,61,61,62,62,66,66,67,67,68,68,69,69,70,70],"right_children":[2,4,6,8,10,12,14,16,18,20,22,24,26,-1,28,30,-1,-1,-1,32,34,36,38,40,42,-1,44,-1,-1,-1,46,48,50,52,54,56,58,60,62,64,66,68,-1,70,72,74,76,78,80,82,-1,84,86,-1,88,90,-1,-1,-1,92,-1,94,96,-1,-1,-1,98,100,102,104,106,-1,-1,-1,-1,-1,-1,-1,-1,-1,-1,-1,-1,-1,-1,-1,-1,-1,-1,-1,-1,-1,-1,-1,-1,-1,-1,-1,-1,-1,-1,-1,-1,-1,-1,-1,-1],"split_conditions":[-1E0,-9E0,9E0,8.0851066E-1,2.3E1,1.25E2,5.289256E-1,2.4E1,1.625E3,7.361111E-1,9.2E1,6.034483E-1,1.15E2,3.680675E-2,1.464E3,-1.3E1,2.1172887E-2,9.2085466E-2,-6.59244E-3,1.4E1,8.6E1,7.8E1,9.1E1,7E1,9.125E0,-1.7271815E-1,2.9E1,1.16761826E-1,4.8979603E-2,-1.5779483E-1,7.5E1,-8.09017E-1,1E0,1.3E1,6.5E1,8.3E1,-7E0,9.9E1,1.15E2,1.04528464E-1,9.5E1,9.5E1,7.0815454E-3,1.5E2,7.94E2,-8.09017E-1,1.21E2,1.74E2,1.9E3,1E0,8.853087E-2,1.445E3,7.1E1,-1.2835766E-1,2E2,5.714286E-1,-1.57551E-1,4.1244596E-2,1.2096729E-1,8.5E1,-1.9776696E-1,-9.135454E-1,1.13E2,9.711519E-3,-8.642333E-2,1.1392237E-1,7E1,6.744186E-1,8.8E1,1.24E2,1.28E2,2.2387698E-2,1.14928104E-1,-5.7772387E-2,-1.3224621E-1,4.990416E-2,-8.4954284E-2,-7.5652055E-2,3.446948E-2,-1.2720378E-1,-1.6711101E-2,-4.7582503E-2,1.0029764E-2,-8.3056994E-2,4.6060137E-2,6.088108E-2,1.2488333E-1,8.028942E-3,-9.2495225E-2,-3.6134552E-2,8.559366E-2,-1.3276157E-1,7.013443E-2,-1.534033E-2,1.13662444E-1,-1.4007883E-1,1.9931389E-2,-9.992158E-2,1.02793775E-1,6.3731335E-2,1.1869432E-1,-7.0511624E-2,9.298741E-2,-9.309659E-4,1.09062314E-1,-1.4987677E-1,1.5319779E-2],"split_indices":[34,34,34,83,84,41,83,35,39,83,41,83,42,0,44,34,0,0,0,84,41,42,42,42,85,0,84,0,0,0,43,56,89,84,43,41,34,41,41,47,41,41,0,41,44,55,41,31,32,103,0,37,42,0,41,83,0,0,0,42,0,68,42,0,0,0,43,83,42,42,43,0,0,0,0,0,0,0,0,0,0,0,0,0,0,0,0,0,0,0,0,0,0,0,0,0,0,0,0,0,0,0,0,0,0,0,0],"split_type":[0,0,0,0,0,0,0,0,0,0,0,0,0,0,0,0,0,0,0,0,0,0,0,0,0,0,0,0,0,0,0,0,0,0,0,0,0,0,0,0,0,0,0,0,0,0,0,0,0,0,0,0,0,0,0,0,0,0,0,0,0,0,0,0,0,0,0,0,0,0,0,0,0,0,0,0,0,0,0,0,0,0,0,0,0,0,0,0,0,0,0,0,0,0,0,0,0,0,0,0,0,0,0,0,0,0,0],"sum_hessian":[8.703861E2,6.32824E2,2.3756215E2,8.3140366E1,5.496836E2,1.8782683E2,4.973533E1,7.610833E1,7.0320396E0,3.5436566E2,1.9531795E2,8.661337E1,1.01213455E2,3.3233237E0,4.6412003E1,7.124841E1,4.8599153E0,3.9294596E0,3.1025803E0,2.3278699E2,1.2157868E2,4.6495285E1,1.4882266E2,2.0495213E1,6.611816E1,3.9700413E0,9.724341E1,4.1986015E1,4.425987E0,1.2159928E1,5.9088486E1,3.2973152E1,1.9981383E2,3.6950245E1,8.462843E1,2.964334E1,1.6851944E1,1.4489886E1,1.3433278E2,6.8613987E0,1.3633814E1,6.2165833E1,3.9523246E0,8.3186264E1,1.405715E1,2.5097157E1,3.399133E1,7.0200677E0,2.5953085E1,1.954445E2,4.369324E0,6.119967E0,3.0830276E1,6.038336E0,7.85901E1,2.6570549E1,3.072791E0,3.3940578E0,1.3457887E1,8.475209E0,6.0146766E0,2.4172634E1,1.1016014E2,3.5471187E0,3.31428E0,6.499122E0,7.1346917E0,3.5269016E1,2.6896816E1,2.295061E1,6.0235653E1,3.0392015E0,1.1017948E1,5.002506E0,2.009465E1,7.6743984E0,2.631693E1,3.3842537E0,3.6358142E0,2.2109812E1,3.8432739E0,1.664682E2,2.8976318E1,3.011329E0,3.108638E0,2.1471367E1,9.358911E0,6.9757095E1,8.833002E0,4.9480824E0,2.1622467E1,5.318369E0,3.1568406E0,3.169417E0,2.1003218E1,9.324164E0,1.00835976E2,3.2021964E0,3.9324956E0,5.8305626E0,2.9438454E1,4.0253654E0,2.287145E1,6.584012E0,1.6366598E1,8.655301E0,5.158035E1],"tree_param":{"num_deleted":"0","num_feature":"110","num_nodes":"107","size_leaf_vector":"1"}},{"base_weights":[8.897375E-3,-1.8654817E-1,5.397272E-1,-3.1474245E-1,2.9008335E-1,-1.8349929E-1,6.6641176E-1,-5.973326E-1,-1.0569386E-1,8.593731E-1,1.6284707E-1,-3.2157668E-1,9.617763E-2,4.587046E-1,9.536689E-1,-6.992747E-1,-1.3450217E-1,-5.3795403E-1,1.7634036E-2,1.8707035E-1,1.1990006E-1,-1.7595594E-1,2.393468E-1,-5.010869E-1,5.0530266E-2,6.555144E-2,7.001326E-1,1.0380234E0,5.9020567E-1,-6.331119E-1,-1.5098816E0,1.3794075E0,-5.671235E-1,-6.155728E-1,7.249766E-2,6.3454336E-1,-7.8715436E-2,1.06250644E-1,-8.5781746E-2,2.5743715E-2,5.8206946E-1,-8.596717E-1,-1.228036E-1,-3.0334905E-1,6.232545E-1,5.390928E-1,1.0963115E0,4.8898682E-2,1.0730387E0,-5.0714184E-2,8.9185596E-1,-1.2641345E0,-5.2665675E-1,-1.756089E-1,-8.174302E-2,1.6204785E-1,7.0244506E-2,-7.891637E-1,2.8846142E-1,-5.005551E-1,-1.5142445E-1,2.0256437E-1,1.2526959E-1,-2.00768E-1,-2.7292006E-2,2.0337512E-1,-4.3054906E-1,-3.2512765E-2,6.8439066E-1,-1.1693192E0,1.7782805E-2,7.453201E-2,-5.4088897E-1,6.367123E-1,-5.951884E-1,8.334822E-1,-2.932775E-2,7.1742475E-1,-1.8649694E-3,1.1787832E-1,4.9323425E-2,5.8407225E-2,1.1136762E0,1.1203394E-1,2.2310669E-2,-1.5673126E-1,-8.468262E-2,-1.0079676E-1,-4.2451028E-2,-1.5898275E-1,-4.1315526E-2,8.014131E-2,-2.7622422E-2,-6.333073E-2,1.5767487E-2,8.131488E-2,-9.528752E-2,7.584639E-2,-1.0300653E-2,9.867814E-2,-1.206213E-3,5.57036E-2,-2.0119236E-1,7.733213E-2,-9.976317E-3,-1.5571462E-1,-4.9866404E-2,-1.1610446E-1,3.899644E-2,1.1996615E-2,9.870276E-2,4.7345986E-4,-1.1090534E-1,3.7835263E-2,1.1396106E-1,8.348373E-2,4.2588646E-3,-4.7641028E-2,8.044412E-2,1.14782505E-1,6.393825E-2],"categories":[],"categories_nodes":[],"categories_segments":[],"categories_sizes":[],"default_left":[0,0,0,0,0,0,0,0,0,0,0,0,0,0,0,0,0,0,0,0,0,0,0,0,0,0,0,0,0,0,0,0,0,0,0,0,0,0,0,0,0,0,0,0,0,0,0,0,0,0,0,0,0,0,0,0,0,0,0,0,0,0,0,0,0,0,0,0,0,0,0,0,0,0,0,0,0,0,0,0,0,0,0,0,0,0,0,0,0,0,0,0,0,0,0,0,0,0,0,0,0,0,0,0,0,0,0,0,0,0,0,0,0,0,0,0,0,0,0,0,0],"id":9,"left_children":[1,3,5,7,9,11,13,15,17,19,21,23,-1,25,27,29,31,33,35,37,-1,-1,39,41,-1,43,45,47,49,51,53,55,57,59,-1,61,63,-1,-1,65,67,69,71,73,75,77,79,-1,81,-1,83,85,87,-1,-1,-1,-1,89,91,93,-1,95,-1,-1,97,99,101,-1,103,105,-1,-1,107,109,111,113,-1,115,117,-1,-1,-1,119,-1,-1,-1,-1,-1,-1,-1,-1,-1,-1,-1,-1,-1,-1,-1,-1,-1,-1,-1,-1,-1,-1,-1,-1,-1,-1,-1,-1,-1,-1,-1,-1,-1,-1,-1,-1,-1,-1],"loss_changes":[8.920264E1,3.8490784E1,2.1321075E1,2.9222263E1,9.546176E0,5.887035E0,1.132267E1,9.841225E0,1.5264484E1,5.2999153E0,1.6675955E1,5.036643E0,0E0,1.0994652E1,1.8948593E0,8.286331E0,2.6487099E1,6.6761227E0,1.3340815E1,9.422879E0,0E0,0E0,7.831255E0,3.5541887E0,0E0,9.520503E0,4.0000916E0,7.2608185E-1,6.319091E0,1.0152527E1,6.5844154E-1,3.327675E-1,6.1610928E0,5.4865513E0,0E0,7.8414373E0,1.9217583E1,0E0,0E0,5.5240216E0,4.0381613E0,4.6040525E0,5.591894E0,8.052869E0,3.7867994E0,5.1268644E0,4.0484047E-1,0E0,5.481796E-1,0E0,1.9296465E0,1.5235748E0,6.431114E0,0E0,0E0,0E0,0E0,6.889187E0,2.2975497E0,4.910411E0,0E0,1.4206056E1,0E0,0E0,1.1397204E1,8.274828E0,3.0974203E1,0E0,2.6755772E0,1.9989367E0,0E0,0E0,6.3574553E0,1.1686084E0,6.744821E0,1.6886692E0,0E0,3.1307049E0,5.8050942E0,0E0,0E0,0E0,1.5029907E-1,0E0,0E0,0E0,0E0,0E0,0E0,0E0,0E0,0E0,0E0,0E0,0E0,0E0,0E0,0E0,0E0,0E0,0E0,0E0,0E0,0E0,0E0,0E0,0E0,0E0,0E0,0E0,0E0,0E0,0E0,0E0,0E0,0E0,0E0,0E0,0E0,0E0,0E0],"parents":[2147483647,0,0,1,1,2,2,3,3,4,4,5,5,6,6,7,7,8,8,9,9,10,10,11,11,13,13,14,14,15,15,16,16,17,17,18,18,19,19,22,22,23,23,25,25,26,26,27,27,28,28,29,29,30,30,31,31,32,32,33,33,35,35,36,36,39,39,40,40,41,41,42,42,43,43,44,44,45,45,46,46,48,48,50,50,51,51,52,52,57,57,58,58,59,59,61,61,64,64,65,65,66,66,68,68,69,69,72,72,73,73,74,74,75,75,77,77,78,78,82,82],"right_children":[2,4,6,8,10,12,14,16,18,20,22,24,-1,26,28,30,32,34,36,38,-1,-1,40,42,-1,44,46,48,50,52,54,56,58,60,-1,62,64,-1,-1,66,68,70,72,74,76,78,80,-1,82,-1,84,86,88,-1,-1,-1,-1,90,92,94,-1,96,-1,-1,98,100,102,-1,104,106,-1,-1,108,110,112,114,-1,116,118,-1,-1,-1,120,-1,-1,-1,-1,-1,-1,-1,-1,-1,-1,-1,-1,-1,-1,-1,-1,-1,-1,-1,-1,-1,-1,-1,-1,-1,-1,-1,-1,-1,-1,-1,-1,-1,-1,-1,-1,-1,-1],"split_conditions":[-1E0,2.6E1,5.638298E-1,6.744186E-1,8.5E1,1.2E1,4E0,1.38E2,-7E0,3.6E1,7.8E1,3E1,9.617763E-2,1.8E1,1.8E2,1E0,1.74E2,9E-1,7.1E1,6.4E1,1.1990006E-1,-1.7595594E-1,2.3E1,1E0,5.0530266E-2,1E0,2.7E1,-9.659258E-1,1.76E2,4.2857143E-1,1E0,1E0,2.3E1,2.239E3,7.249766E-2,5.9E1,6.2E1,1.06250644E-1,-8.5781746E-2,6.691306E-1,4.3661973E-1,9.5105654E-1,5.289256E-1,6.3E1,1.81E2,1.75E2,1.956E3,4.8898682E-2,5E0,-5.0714184E-2,2.41E2,7E0,-9E0,-1.756089E-1,-8.174302E-2,1.6204785E-1,7.0244506E-2,1.58E2,-3.09017E-1,1.42E2,-1.5142445E-1,6.2E1,1.2526959E-1,-2.00768E-1,8.2E1,-7.431448E-1,-3.09017E-1,-3.2512765E-2,9.781476E-1,3.09017E-1,1.7782805E-2,7.453201E-2,1E0,4.0673664E-1,1.2246469E-16,3E0,-2.932775E-2,9.135454E-1,2.19E2,1.1787832E-1,4.9323425E-2,5.8407225E-2,1E0,1.1203394E-1,2.2310669E-2,-1.5673126E-1,-8.468262E-2,-1.0079676E-1,-4.2451028E-2,-1.5898275E-1,-4.1315526E-2,8.014131E-2,-2.7622422E-2,-6.333073E-2,1.5767487E-2,8.131488E-2,-9.528752E-2,7.584639E-2,-1.0300653E-2,9.867814E-2,-1.206213E-3,5.57036E-2,-2.0119236E-1,7.733213E-2,-9.976317E-3,-1.5571462E-1,-4.9866404E-2,-1.1610446E-1,3.899644E-2,1.1996615E-2,9.870276E-2,4.7345986E-4,-1.1090534E-1,3.7835263E-2,1.1396106E-1,8.348373E-2,4.2588646E-3,-4.7641028E-2,8.044412E-2,1.14782505E-1,6.393825E-2],"split_indices":[34,84,83,83,41,34,34,43,34,43,42,84,0,84,41,105,41,83,41,41,0,0,35,80,0,15,84,65,42,83,71,10,84,39,0,42,42,0,0,59,83,64,83,31,41,41,32,0,34,0,41,107,34,0,0,0,0,43,52,43,0,41,0,0,41,51,52,0,67,68,0,0,8,48,47,87,0,67,42,0,0,0,69,0,0,0,0,0,0,0,0,0,0,0,0,0,0,0,0,0,0,0,0,0,0,0,0,0,0,0,0,0,0,0,0,0,0,0,0,0,0],"split_type":[0,0,0,0,0,0,0,0,0,0,0,0,0,0,0,0,0,0,0,0,0,0,0,0,0,0,0,0,0,0,0,0,0,0,0,0,0,0,0,0,0,0,0,0,0,0,0,0,0,0,0,0,0,0,0,0,0,0,0,0,0,0,0,0,0,0,0,0,0,0,0,0,0,0,0,0,0,0,0,0,0,0,0,0,0,0,0,0,0,0,0,0,0,0,0,0,0,0,0,0,0,0,0,0,0,0,0,0,0,0,0,0,0,0,0,0,0,0,0,0,0],"sum_hessian":[8.578278E2,6.274547E2,2.3037315E2,4.9473184E2,1.3272285E2,3.4271706E1,1.9610144E2,2.09574E2,2.8515784E2,2.3193716E1,1.09529144E2,3.1226208E1,3.045498E0,1.1531641E2,8.078504E1,1.7132701E2,3.8247E1,6.2552258E1,2.2260556E2,8.304844E0,1.4888872E1,3.349777E0,1.0617937E2,2.5980097E1,5.2461104E0,4.435617E1,7.0960236E1,6.40614E1,1.6723637E1,1.6004495E2,1.1282051E1,8.014092E0,3.0232908E1,5.941334E1,3.138917E0,2.9315775E1,1.932898E2,4.509662E0,3.7951818E0,6.607378E1,4.010559E1,1.2684018E1,1.3296078E1,2.6971542E1,1.7384628E1,5.213073E1,1.8829508E1,4.737819E0,5.9323586E1,3.4590464E0,1.3264589E1,2.1532753E1,1.385122E2,7.1896577E0,4.0923934E0,4.881874E0,3.132219E0,2.4065176E1,6.1677313E0,5.405237E1,5.3609724E0,1.8038063E1,1.1277712E1,4.0312138E0,1.8925858E2,4.7958263E1,1.8115509E1,3.844255E0,3.6261337E1,9.670693E0,3.0133257E0,4.0675044E0,9.228574E0,6.109651E0,2.086189E1,1.421476E1,3.169869E0,3.896073E1,1.3169999E1,1.5724542E1,3.1049669E0,5.7315936E0,5.359199E1,9.383402E0,3.8811877E0,1.0875697E1,1.0657055E1,2.2696964E1,1.1581524E2,6.658516E0,1.740666E1,3.0122395E0,3.1554918E0,4.5012157E1,9.040212E0,1.1995411E1,6.0426526E0,1.5841372E1,1.734172E2,9.571722E0,3.8386543E1,1.1550101E1,6.5654078E0,3.258024E1,3.6810982E0,5.289847E0,4.380846E0,5.390206E0,3.838368E0,3.0108426E0,3.0988088E0,1.0082104E1,1.0779787E1,6.6153965E0,7.5993633E0,3.2984726E1,5.9760027E0,8.548179E0,4.62182E0,4.8667873E1,4.924119E0],"tree_param":{"num_deleted":"0","num_feature":"110","num_nodes":"121","size_leaf_vector":"1"}},{"base_weights":[2.5946487E-2,-1.5484992E-1,5.321952E-1,-3.2994416E-1,1.00164495E-1,3.4639955E-1,9.4215226E-1,-4.9255633E-1,-5.0223805E-2,-2.8925562E-1,2.444566E-1,8.7061465E-2,6.897591E-1,1.0803953E0,4.951475E-1,-5.927411E-1,3.2910965E-2,2.138944E-1,-3.314803E-1,-4.5895162E-1,4.929941E-1,5.7582444E-1,4.5150165E-2,4.6952194E-1,-2.0339324E-1,-1.7337993E-2,7.650515E-1,1.1131363E-1,4.4853773E-2,-5.116806E-2,8.112141E-1,-5.1816034E-1,-1.7074105E-1,9.39407E-1,-5.912217E-1,6.0264625E-2,1.0938325E0,-1.1007911E0,-1.9777171E-2,4.1323936E-1,-6.04851E-1,-3.075063E-2,8.5361046E-1,2.3191991E-1,9.399402E-1,-1.463872E-1,1.518022E-1,-1.0055228E-1,6.7291975E-1,-1.4674771E-1,-3.5587963E-2,8.846029E-1,2.0988989E-1,1.06912814E-1,3.301666E-2,-6.1076355E-1,5.0556195E-1,1.454383E-1,3.136241E-1,-1.1943663E0,-8.257646E-2,2.0512377E-1,-9.0952396E-1,1.3112998E-1,5.0316703E-2,-5.822228E-1,-1.6995187E-1,1.3594909E-1,-1.9868687E-1,1.0196555E-1,-1.1983064E-2,-2.6252544E-1,-8.967303E-1,1.0676863E-1,3.2401543E-2,5.2770716E-1,-1.2964137E-1,1.18551925E-1,4.97181E-1,1.15596E0,-2.52111E-4,-7.0602846E-1,7.7998035E-2,1.1384924E-1,2.9485878E-1,1.0775282E-1,-2.1413293E-1,1.0139441E0,5.003865E-1,-7.090038E-2,6.4060354E-1,-4.5993324E-2,-1.1703966E-1,1.481951E-1,-1.2466845E-2,-7.971872E-2,1.4345115E-1,-1.5978299E-1,-1.8515706E-2,-8.782795E-2,5.8534034E-2,4.534563E-3,1.0029312E-1,-1.4903875E-1,1.3696924E-3,-1.5891711E-1,8.127113E-2,-7.201585E-2,2.663805E-2,1.2028976E-2,-7.2276235E-2,-1.08090356E-1,-1.9562028E-3,8.307746E-2,-4.548121E-2,-5.536231E-2,1.01971544E-1,5.310738E-2,1.2744331E-1,-1.5951551E-1,1.422467E-2,-9.650507E-2,-2.6937688E-2,-7.386677E-2,9.051436E-2,-1.302927E-1,8.576411E-3,5.5919863E-2,1.1806239E-1,9.215474E-2,7.439489E-4,1.057147E-1,3.0397084E-3],"categories":[],"categories_nodes":[],"categories_segments":[],"categories_sizes":[],"default_left":[0,0,0,0,0,0,0,0,0,0,0,0,0,0,0,0,0,0,0,0,0,0,0,0,0,0,0,0,0,0,0,0,0,0,0,0,0,0,0,0,0,0,0,0,0,0,0,0,0,0,0,0,0,0,0,0,0,0,0,0,0,0,0,0,0,0,0,0,0,0,0,0,0,0,0,0,0,0,0,0,0,0,0,0,0,0,0,0,0,0,0,0,0,0,0,0,0,0,0,0,0,0,0,0,0,0,0,0,0,0,0,0,0,0,0,0,0,0,0,0,0,0,0,0,0,0,0,0,0,0,0,0,0],"id":10,"left_children":[1,3,5,7,9,11,13,15,17,19,21,23,25,27,29,31,33,35,37,39,41,43,45,47,49,-1,51,-1,-1,-1,53,55,-1,57,59,61,63,65,67,69,71,-1,73,75,77,-1,79,81,83,-1,85,87,89,-1,-1,91,93,-1,95,97,99,101,103,-1,-1,105,-1,-1,107,-1,-1,109,111,-1,-1,113,-1,-1,115,117,119,121,-1,-1,123,-1,125,127,129,-1,131,-1,-1,-1,-1,-1,-1,-1,-1,-1,-1,-1,-1,-1,-1,-1,-1,-1,-1,-1,-1,-1,-1,-1,-1,-1,-1,-1,-1,-1,-1,-1,-1,-1,-1,-1,-1,-1,-1,-1,-1,-1,-1],"loss_changes":[7.65381E1,2.7551096E1,1.643386E1,1.6606377E1,1.4211105E1,1.3563986E1,3.669754E0,1.2185665E1,1.0138652E1,9.31842E0,1.2136519E1,9.905523E0,4.4017315E0,5.583458E-1,6.117206E0,1.5255493E1,2.2028559E1,9.464828E0,1.5811302E1,7.47808E0,3.9263196E0,8.432247E0,1.8903975E1,4.5224924E0,1.0742429E1,0E0,3.8367004E0,0E0,0E0,0E0,1.38698E0,1.7696022E1,0E0,4.6557064E0,6.9854784E0,8.767334E0,6.7878914E-1,4.915905E0,1.2116513E1,2.9456139E0,4.6672955E0,0E0,6.761098E-1,1.734413E1,3.0233593E0,0E0,1.6692343E1,6.4009085E0,4.671321E0,0E0,9.362983E0,1.9552841E0,5.223168E0,0E0,0E0,1.3697224E1,9.883665E0,0E0,1.164681E1,3.9754725E0,7.7426744E0,6.832738E0,4.3759785E0,0E0,0E0,1.7744602E1,0E0,0E0,1.0709241E1,0E0,0E0,4.314729E0,4.1906967E0,0E0,0E0,9.783853E0,0E0,0E0,8.019125E0,3.8756752E-1,2.2032518E1,5.3480697E-1,0E0,0E0,1.142167E1,0E0,1.3314162E1,2.076088E0,2.9941514E0,0E0,2.1866846E0,0E0,0E0,0E0,0E0,0E0,0E0,0E0,0E0,0E0,0E0,0E0,0E0,0E0,0E0,0E0,0E0,0E0,0E0,0E0,0E0,0E0,0E0,0E0,0E0,0E0,0E0,0E0,0E0,0E0,0E0,0E0,0E0,0E0,0E0,0E0,0E0,0E0,0E0,0E0,0E0,0E0,0E0],"parents":[2147483647,0,0,1,1,2,2,3,3,4,4,5,5,6,6,7,7,8,8,9,9,10,10,11,11,12,12,13,13,14,14,15,15,16,16,17,17,18,18,19,19,20,20,21,21,22,22,23,23,24,24,26,26,30,30,31,31,33,33,34,34,35,35,36,36,37,37,38,38,39,39,40,40,42,42,43,43,44,44,46,46,47,47,48,48,50,50,51,51,52,52,55,55,56,56,58,58,59,59,60,60,61,61,62,62,65,65,68,68,71,71,72,72,75,75,78,78,79,79,80,80,81,81,84,84,86,86,87,87,88,88,90,90],"right_children":[2,4,6,8,10,12,14,16,18,20,22,24,26,28,30,32,34,36,38,40,42,44,46,48,50,-1,52,-1,-1,-1,54,56,-1,58,60,62,64,66,68,70,72,-1,74,76,78,-1,80,82,84,-1,86,88,90,-1,-1,92,94,-1,96,98,100,102,104,-1,-1,106,-1,-1,108,-1,-1,110,112,-1,-1,114,-1,-1,116,118,120,122,-1,-1,124,-1,126,128,130,-1,132,-1,-1,-1,-1,-1,-1,-1,-1,-1,-1,-1,-1,-1,-1,-1,-1,-1,-1,-1,-1,-1,-1,-1,-1,-1,-1,-1,-1,-1,-1,-1,-1,-1,-1,-1,-1,-1,-1,-1,-1,-1,-1],"split_conditions":[-1E0,1.5E1,6E0,7.3333335E-1,-7E0,7.3333335E-1,1.8E2,1.4E2,1.15E2,2.4E1,1.06E2,1.25E2,1.3E1,9.125E0,1.76E2,1.64E2,1.85E2,9.7E1,1.24E2,9.26E2,1.2E1,7.9E1,1.01E2,7E1,1.21E2,-1.7337993E-2,1.294E3,1.1131363E-1,4.4853773E-2,-5.116806E-2,2.31E2,1.23E2,-1.7074105E-1,1.72E2,1.2246469E-16,9.8E1,7.894737E-1,1.28E2,1.39E2,3.09017E-1,1.7E1,-3.075063E-2,1.17E2,8.4E1,9.8E1,-1.463872E-1,1.19E2,6.034483E-1,9.5E1,-1.4674771E-1,1.41E2,1E0,1.96E2,1.06912814E-1,3.301666E-2,1.26E2,1.53E2,1.454383E-1,1.7E2,2E1,3E0,8.2E1,2.0791169E-1,1.3112998E-1,5.0316703E-2,1.07E2,-1.6995187E-1,1.3594909E-1,1.42E2,1.0196555E-1,-1.1983064E-2,1E0,2.23E2,1.0676863E-1,3.2401543E-2,8.660254E-1,-1.2964137E-1,1.18551925E-1,9.2E1,4.9E1,1.13E2,6.123234E-17,7.7998035E-2,1.1384924E-1,9.5E1,1.0775282E-1,1.47E2,1.1E1,1.15E2,-7.090038E-2,7.647059E-1,-4.5993324E-2,-1.1703966E-1,1.481951E-1,-1.2466845E-2,-7.971872E-2,1.4345115E-1,-1.5978299E-1,-1.8515706E-2,-8.782795E-2,5.8534034E-2,4.534563E-3,1.0029312E-1,-1.4903875E-1,1.3696924E-3,-1.5891711E-1,8.127113E-2,-7.201585E-2,2.663805E-2,1.2028976E-2,-7.2276235E-2,-1.08090356E-1,-1.9562028E-3,8.307746E-2,-4.548121E-2,-5.536231E-2,1.01971544E-1,5.310738E-2,1.2744331E-1,-1.5951551E-1,1.422467E-2,-9.650507E-2,-2.6937688E-2,-7.386677E-2,9.051436E-2,-1.302927E-1,8.576411E-3,5.5919863E-2,1.1806239E-1,9.215474E-2,7.439489E-4,1.057147E-1,3.0397084E-3],"split_indices":[34,35,34,83,34,83,41,43,41,35,41,41,84,85,42,41,41,42,42,37,108,42,42,42,42,0,44,0,0,0,41,43,0,41,55,41,83,41,41,64,108,0,41,41,41,0,41,83,41,0,41,70,42,0,0,41,41,0,42,84,87,42,59,0,0,42,0,0,43,0,0,3,31,0,0,63,0,0,42,30,42,68,0,0,42,0,42,108,41,0,83,0,0,0,0,0,0,0,0,0,0,0,0,0,0,0,0,0,0,0,0,0,0,0,0,0,0,0,0,0,0,0,0,0,0,0,0,0,0,0,0,0,0],"split_type":[0,0,0,0,0,0,0,0,0,0,0,0,0,0,0,0,0,0,0,0,0,0,0,0,0,0,0,0,0,0,0,0,0,0,0,0,0,0,0,0,0,0,0,0,0,0,0,0,0,0,0,0,0,0,0,0,0,0,0,0,0,0,0,0,0,0,0,0,0,0,0,0,0,0,0,0,0,0,0,0,0,0,0,0,0,0,0,0,0,0,0,0,0,0,0,0,0,0,0,0,0,0,0,0,0,0,0,0,0,0,0,0,0,0,0,0,0,0,0,0,0,0,0,0,0,0,0,0,0,0,0,0,0],"sum_hessian":[8.3432623E2,6.152842E2,2.1904207E2,3.6463205E2,2.5065211E2,1.5199965E2,6.704242E1,2.3010329E2,1.3452876E2,6.74936E1,1.8315852E2,8.7309044E1,6.4690605E1,5.012388E1,1.6918543E1,1.9314966E2,3.6953617E1,6.950167E1,6.50271E1,5.5801655E1,1.1691945E1,6.807972E1,1.15078804E2,3.7419655E1,4.9889385E1,5.0857453E0,5.9604862E1,4.6930405E1,3.1934738E0,3.8943179E0,1.3024225E1,1.8240979E2,1.0739882E1,1.4862315E1,2.2091305E1,6.0080593E1,9.421078E0,1.8020178E1,4.700692E1,7.7341714E0,4.8067482E1,3.6769915E0,8.014953E0,3.58534E1,3.2226315E1,6.7564163E0,1.0832239E2,9.97311E0,2.7446547E1,4.938951E0,4.4950436E1,4.8555294E1,1.1049566E1,7.6826606E0,5.3415647E0,1.6764816E2,1.4761617E1,7.42662E0,7.4356947E0,9.4900255E0,1.2601278E1,5.295856E1,7.122033E0,5.9941516E0,3.4269264E0,1.0713481E1,7.3066964E0,4.6396585E0,4.2367264E1,3.1911483E0,4.543023E0,2.299621E1,2.5071272E1,4.984178E0,3.030775E0,3.0588205E1,5.265195E0,1.9649843E1,1.2576472E1,1.3377287E1,9.494511E1,6.0269847E0,3.9461248E0,1.13983555E1,1.6048191E1,5.517462E0,3.9432972E1,3.5100273E1,1.3455021E1,3.3201575E0,7.729409E0,1.3349178E2,3.415639E1,5.260424E0,9.501193E0,3.8796802E0,3.5560148E0,6.3629746E0,3.127051E0,5.606813E0,6.9944654E0,4.5002647E1,7.9559116E0,3.9944856E0,3.1275477E0,6.1411676E0,4.5723133E0,1.971391E1,2.2653353E1,1.2957268E1,1.0038942E1,2.0528725E1,4.542547E0,2.34953E1,7.0929055E0,4.1571164E0,8.419356E0,3.00581E0,1.0371476E1,6.9511304E0,8.799397E1,3.0233903E0,3.0035946E0,5.879984E0,1.0168206E1,7.793528E0,3.1639446E1,1.0582744E1,2.451753E1,6.7869573E0,6.6680636E0,4.158359E0,3.5710502E0],"tree_param":{"num_deleted":"0","num_feature":"110","num_nodes":"133","size_leaf_vector":"1"}},{"base_weights":[1.0522941E-2,-2.408688E-1,3.390847E-1,-3.2005143E-1,2.5570524E-1,2.2969739E-1,9.122182E-1,-5.8728623E-1,-1.849676E-1,8.89925E-1,9.704533E-2,5.032985E-1,-4.9674227E-3,9.606694E-1,6.300016E-3,-6.9389E-1,-1.4896616E-1,-2.1329005E-1,1.0330184E-1,1.9536579E-2,1.1234299E-1,-1.2884618E-1,2.8616813E-1,-3.9411637E-1,6.078439E-1,-9.834279E-1,1.7935479E-1,1.0421232E0,6.3298774E-1,-5.5756944E-1,-1.2794688E0,7.7338046E-1,-5.5623716E-1,-4.9154726E-1,-9.495523E-2,1.1007173E-1,1.0832274E-1,-1.563289E-2,-1.0923111E-1,5.120518E-1,1.1789059E-1,-2.9006046E-1,-1.4631658E0,1.0209912E0,-6.1607253E-2,4.02518E-2,1.083402E-1,-1.9658424E-2,8.9890045E-1,-7.0398253E-1,1.1732282E-1,-1.4750699E0,-1.7182047E-2,1.19198404E-1,5.759477E-3,-1.4242713E-1,-2.0680986E-1,-6.6525704E-1,1.725344E-1,2.908889E-1,-1.9136503E-1,-1.0039959E-1,2.8267747E-1,4.8407685E-2,-5.890387E-2,6.39623E-1,-8.325312E-1,-1.6717245E-1,7.862339E-1,-1.7052542E0,-4.7222678E-2,2.8732652E-2,1.092492E0,-1.5850266E0,1.2252883E-1,4.47794E-2,1.0396313E-1,-5.6221493E-2,-1.4731868E-1,-7.5041376E-2,-1.6121326E-1,7.1218364E-2,-6.2413372E-2,4.7671493E-2,-7.483706E-2,8.0461904E-2,-9.3515605E-2,-5.763626E-2,6.708036E-2,-8.419267E-2,-5.499464E-4,8.688563E-2,-1.2043616E-2,3.96161E-2,9.787148E-2,-1.403865E-1,-1.4769308E-2,2.5889555E-2,1.0963291E-1,-8.353632E-2,-1.9322246E-1,5.169743E-2,1.163237E-1,-1.0257006E-1,-2.0936863E-1,1.10986486E-1,-1.7178956E-2],"categories":[],"categories_nodes":[],"categories_segments":[],"categories_sizes":[],"default_left":[0,0,0,0,0,0,0,0,0,0,0,0,0,0,0,0,0,0,0,0,0,0,0,0,0,0,0,0,0,0,0,0,0,0,0,0,0,0,0,0,0,0,0,0,0,0,0,0,0,0,0,0,0,0,0,0,0,0,0,0,0,0,0,0,0,0,0,0,0,0,0,0,0,0,0,0,0,0,0,0,0,0,0,0,0,0,0,0,0,0,0,0,0,0,0,0,0,0,0,0,0,0,0,0,0,0,0],"id":11,"left_children":[1,3,5,7,9,11,13,15,17,19,21,23,25,27,-1,29,31,33,-1,-1,-1,-1,35,37,39,41,43,45,47,49,51,53,55,57,59,-1,61,63,-1,65,-1,67,69,71,73,-1,-1,-1,75,77,-1,79,-1,-1,-1,-1,81,83,85,87,89,-1,91,-1,-1,93,95,-1,97,99,-1,-1,101,103,105,-1,-1,-1,-1,-1,-1,-1,-1,-1,-1,-1,-1,-1,-1,-1,-1,-1,-1,-1,-1,-1,-1,-1,-1,-1,-1,-1,-1,-1,-1,-1,-1],"loss_changes":[6.8051636E1,1.843585E1,2.2179482E1,1.4440517E1,6.4293118E0,1.9342178E1,2.2806091E0,6.198368E0,9.505689E0,1.862112E0,1.4234627E1,1.3288307E1,2.9598593E1,7.751808E-1,0E0,7.9244003E0,1.081936E1,8.642281E0,0E0,0E0,0E0,0E0,6.7443647E0,3.978087E0,6.232235E0,8.228931E0,2.8074615E1,6.598053E-1,3.0994816E0,2.3517937E1,4.006256E0,2.595015E0,5.701088E0,9.170027E0,6.9889946E0,0E0,8.0409355E0,3.3850296E0,0E0,1.9191637E1,0E0,1.898951E1,2.8240356E0,1.3017921E0,3.0580643E1,0E0,0E0,0E0,1.8282032E-1,8.243141E0,0E0,4.368477E-1,0E0,0E0,0E0,0E0,6.2983327E0,6.281948E0,1.2703991E1,1.2794171E1,1.8099823E1,0E0,8.459673E0,0E0,0E0,7.8612328E0,3.6509762E0,0E0,9.199343E-1,7.1082306E-1,0E0,0E0,5.2677155E-1,1.1962814E0,2.8543718E1,0E0,0E0,0E0,0E0,0E0,0E0,0E0,0E0,0E0,0E0,0E0,0E0,0E0,0E0,0E0,0E0,0E0,0E0,0E0,0E0,0E0,0E0,0E0,0E0,0E0,0E0,0E0,0E0,0E0,0E0,0E0,0E0],"parents":[2147483647,0,0,1,1,2,2,3,3,4,4,5,5,6,6,7,7,8,8,9,9,10,10,11,11,12,12,13,13,15,15,16,16,17,17,22,22,23,23,24,24,25,25,26,26,27,27,28,28,29,29,30,30,31,31,32,32,33,33,34,34,36,36,37,37,39,39,41,41,42,42,43,43,44,44,48,48,49,49,51,51,56,56,57,57,58,58,59,59,60,60,62,62,65,65,66,66,68,68,69,69,72,72,73,73,74,74],"right_children":[2,4,6,8,10,12,14,16,18,20,22,24,26,28,-1,30,32,34,-1,-1,-1,-1,36,38,40,42,44,46,48,50,52,54,56,58,60,-1,62,64,-1,66,-1,68,70,72,74,-1,-1,-1,76,78,-1,80,-1,-1,-1,-1,82,84,86,88,90,-1,92,-1,-1,94,96,-1,98,100,-1,-1,102,104,106,-1,-1,-1,-1,-1,-1,-1,-1,-1,-1,-1,-1,-1,-1,-1,-1,-1,-1,-1,-1,-1,-1,-1,-1,-1,-1,-1,-1,-1,-1,-1,-1],"split_conditions":[-3E0,2.8E1,7E0,-7E0,8.7E1,1.2E2,9.25E0,1.33E2,8.918919E-1,-7.431448E-1,9E1,1.3E1,1.22E2,1.8E2,6.300016E-3,1.35E2,1.7E2,1.7E1,1.0330184E-1,1.9536579E-2,1.1234299E-1,-1.2884618E-1,1.07E2,2.6E1,1.03E2,1.26E2,1.5E2,-9.659258E-1,1.79E2,1.21E2,1.8E1,1.04528464E-1,1.68E2,1.39E2,8.6E1,1.1007173E-1,1.1E2,1E0,-1.0923111E-1,1.07E2,1.1789059E-1,1.09E2,1.727E3,-8.660254E-1,1.43E2,4.02518E-2,1.083402E-1,-1.9658424E-2,-4.0673664E-1,1.18E2,1.1732282E-1,-8.660254E-1,-1.7182047E-2,1.19198404E-1,5.759477E-3,-1.4242713E-1,1.87E2,5.6E1,1.86E2,5.8E1,9.7E1,-1.0039959E-1,1.55E2,4.8407685E-2,-5.890387E-2,7.9E1,9.8E1,-1.6717245E-1,9.6E1,6.3E1,-4.7222678E-2,2.8732652E-2,1E1,1.57E2,1.66E2,4.47794E-2,1.0396313E-1,-5.6221493E-2,-1.4731868E-1,-7.5041376E-2,-1.6121326E-1,7.1218364E-2,-6.2413372E-2,4.7671493E-2,-7.483706E-2,8.0461904E-2,-9.3515605E-2,-5.763626E-2,6.708036E-2,-8.419267E-2,-5.499464E-4,8.688563E-2,-1.2043616E-2,3.96161E-2,9.787148E-2,-1.403865E-1,-1.4769308E-2,2.5889555E-2,1.0963291E-1,-8.353632E-2,-1.9322246E-1,5.169743E-2,1.163237E-1,-1.0257006E-1,-2.0936863E-1,1.10986486E-1,-1.7178956E-2],"split_indices":[34,84,34,34,41,41,85,43,83,56,42,84,42,41,0,41,41,84,0,0,0,0,41,108,42,41,41,65,42,42,35,67,42,42,41,0,42,2,0,41,0,42,37,48,42,0,0,0,56,41,0,62,0,0,0,0,41,41,41,42,42,0,41,0,0,42,42,0,43,31,0,0,35,41,41,0,0,0,0,0,0,0,0,0,0,0,0,0,0,0,0,0,